{"learner":{"attributes":{},"feature_names":[],"feature_types":[],"gradient_booster":{"model":{"cats":{"enc":[],"feature_segments":[],"sorted_idx":[]},"gbtree_model_param":{"num_parallel_tree":"1","num_trees":"300"},"iteration_indptr":[0,1,2,3,4,5,6,7,8,9,10,11,12,13,14,15,16,17,18,19,20,21,22,23,24,25,26,27,28,29,30,31,32,33,34,35,36,37,38,39,40,41,42,43,44,45,46,47,48,49,50,51,52,53,54,55,56,57,58,59,60,61,62,63,64,65,66,67,68,69,70,71,72,73,74,75,76,77,78,79,80,81,82,83,84,85,86,87,88,89,90,91,92,93,94,95,96,97,98,99,100,101,102,103,104,105,106,107,108,109,110,111,112,113,114,115,116,117,118,119,120,121,122,123,124,125,126,127,128,129,130,131,132,133,134,135,136,137,138,139,140,141,142,143,144,145,146,147,148,149,150,151,152,153,154,155,156,157,158,159,160,161,162,163,164,165,166,167,168,169,170,171,172,173,174,175,176,177,178,179,180,181,182,183,184,185,186,187,188,189,190,191,192,193,194,195,196,197,198,199,200,201,202,203,204,205,206,207,208,209,210,211,212,213,214,215,216,217,218,219,220,221,222,223,224,225,226,227,228,229,230,231,232,233,234,235,236,237,238,239,240,241,242,243,244,245,246,247,248,249,250,251,252,253,254,255,256,257,258,259,260,261,262,263,264,265,266,267,268,269,270,271,272,273,274,275,276,277,278,279,280,281,282,283,284,285,286,287,288,289,290,291,292,293,294,295,296,297,298,299,300],"tree_info":[0,0,0,0,0,0,0,0,0,0,0,0,0,0,0,0,0,0,0,0,0,0,0,0,0,0,0,0,0,0,0,0,0,0,0,0,0,0,0,0,0,0,0,0,0,0,0,0,0,0,0,0,0,0,0,0,0,0,0,0,0,0,0,0,0,0,0,0,0,0,0,0,0,0,0,0,0,0,0,0,0,0,0,0,0,0,0,0,0,0,0,0,0,0,0,0,0,0,0,0,0,0,0,0,0,0,0,0,0,0,0,0,0,0,0,0,0,0,0,0,0,0,0,0,0,0,0,0,0,0,0,0,0,0,0,0,0,0,0,0,0,0,0,0,0,0,0,0,0,0,0,0,0,0,0,0,0,0,0,0,0,0,0,0,0,0,0,0,0,0,0,0,0,0,0,0,0,0,0,0,0,0,0,0,0,0,0,0,0,0,0,0,0,0,0,0,0,0,0,0,0,0,0,0,0,0,0,0,0,0,0,0,0,0,0,0,0,0,0,0,0,0,0,0,0,0,0,0,0,0,0,0,0,0,0,0,0,0,0,0,0,0,0,0,0,0,0,0,0,0,0,0,0,0,0,0,0,0,0,0,0,0,0,0,0,0,0,0,0,0,0,0,0,0,0,0,0,0,0,0,0,0,0,0,0,0,0,0,0,0,0,0,0,0,0,0,0,0,0,0],"trees":[{"base_weights":[2.0064616E-3,-2.3330791E-1,1.727015E0,1.749556E0,-2.3174007E-1,-1.7408381E-1,1.7500101E-1],"categories":[],"categories_nodes":[],"categories_segments":[],"categories_sizes":[],"default_left":[0,0,0,0,0,0,0],"id":0,"left_children":[1,-1,3,5,-1,-1,-1],"loss_changes":[1.8609252E5,0E0,2.4263438E3,4.49375E1,0E0,0E0,0E0],"parents":[2147483647,0,0,2,2,3,3],"right_children":[2,-1,4,6,-1,-1,-1],"split_conditions":[1E2,-2.3330791E-1,4.7458345E-1,3.4E1,-2.3174007E-1,-1.7408381E-1,1.7500101E-1],"split_indices":[5003,0,3888,5022,0,0,0],"split_type":[0,0,0,0,0,0,0],"sum_hessian":[4.6197242E4,1.962763E4,2.656961E4,2.6422914E4,1.46696E2,2.938818E0,2.6419975E4],"tree_param":{"num_deleted":"0","num_feature":"5050","num_nodes":"7","size_leaf_vector":"1"}},{"base_weights":[4.5490353E-3,-2.0556699E-1,1.6077152E0,1.629154E0,-2.0437706E-1,-1.5888606E-1,1.6295923E-1],"categories":[],"categories_nodes":[],"categories_segments":[],"categories_sizes":[],"default_left":[0,0,0,0,0,0,0],"id":1,"left_children":[1,-1,3,5,-1,-1,-1],"loss_changes":[1.511173E5,0E0,2.017625E3,3.8671875E1,0E0,0E0,0E0],"parents":[2147483647,0,0,2,2,3,3],"right_children":[2,-1,4,6,-1,-1,-1],"split_conditions":[1E2,-2.0556699E-1,4.7458345E-1,3.4E1,-2.0437706E-1,-1.5888606E-1,1.6295923E-1],"split_indices":[5003,0,3888,5022,0,0,0],"split_type":[0,0,0,0,0,0,0],"sum_hessian":[4.5751293E4,2.0021504E4,2.572979E4,2.5580156E4,1.4963332E2,2.9903595E0,2.5577166E4],"tree_param":{"num_deleted":"0","num_feature":"5050","num_nodes":"7","size_leaf_vector":"1"}},{"base_weights":[6.0250633E-3,-1.8595015E-1,1.51396E0,1.5344822E0,-1.8495493E-1,-1.4665301E-1,1.5349095E-1],"categories":[],"categories_nodes":[],"categories_segments":[],"categories_sizes":[],"default_left":[0,0,0,0,0,0,0],"id":2,"left_children":[1,-1,3,5,-1,-1,-1],"loss_changes":[1.2538121E5,0E0,1.7041758E3,3.365625E1,0E0,0E0,0E0],"parents":[2147483647,0,0,2,2,3,3],"right_children":[2,-1,4,6,-1,-1,-1],"split_conditions":[1E2,-1.8595015E-1,4.7458345E-1,3.4E1,-1.8495493E-1,-1.4665301E-1,1.5349095E-1],"split_indices":[5003,0,3888,5022,0,0,0],"split_type":[0,0,0,0,0,0,0],"sum_hessian":[4.4568594E4,1.9922027E4,2.4646566E4,2.449764E4,1.4892705E2,2.9984553E0,2.4494643E4],"tree_param":{"num_deleted":"0","num_feature":"5050","num_nodes":"7","size_leaf_vector":"1"}},{"base_weights":[6.9299964E-3,-1.7136464E-1,1.4386125E0,1.4583678E0,-1.7047147E-1,-1.365796E-1,1.4587875E-1],"categories":[],"categories_nodes":[],"categories_segments":[],"categories_sizes":[],"default_left":[0,0,0,0,0,0,0],"id":3,"left_children":[1,-1,3,5,-1,-1,-1],"loss_changes":[1.0564381E5,0E0,1.4561055E3,2.9566406E1,0E0,0E0,0E0],"parents":[2147483647,0,0,2,2,3,3],"right_children":[2,-1,4,6,-1,-1,-1],"split_conditions":[1E2,-1.7136464E-1,4.7458345E-1,3.4E1,-1.7047147E-1,-1.365796E-1,1.4587875E-1],"split_indices":[5003,0,3888,5022,0,0,0],"split_type":[0,0,0,0,0,0,0],"sum_hessian":[4.288478E4,1.9477178E4,2.3407604E4,2.3261941E4,1.4566232E2,2.972509E0,2.3258969E4],"tree_param":{"num_deleted":"0","num_feature":"5050","num_nodes":"7","size_leaf_vector":"1"}},{"base_weights":[7.506012E-3,-1.6012461E-1,1.376979E0,1.3960884E0,-1.5928055E-1,-1.2812108E-1,1.3965033E-1],"categories":[],"categories_nodes":[],"categories_segments":[],"categories_sizes":[],"default_left":[0,0,0,0,0,0,0],"id":4,"left_children":[1,-1,3,5,-1,-1,-1],"loss_changes":[9.0052875E4,0E0,1.2552383E3,2.6152344E1,0E0,0E0,0E0],"parents":[2147483647,0,0,2,2,3,3],"right_children":[2,-1,4,6,-1,-1,-1],"split_conditions":[1E2,-1.6012461E-1,4.7458345E-1,3.4E1,-1.5928055E-1,-1.2812108E-1,1.3965033E-1],"split_indices":[5003,0,3888,5022,0,0,0],"split_type":[0,0,0,0,0,0,0],"sum_hessian":[4.0872734E4,1.8794373E4,2.2078361E4,2.193773E4,1.4063014E2,2.9204414E0,2.193481E4],"tree_param":{"num_deleted":"0","num_feature":"5050","num_nodes":"7","size_leaf_vector":"1"}},{"base_weights":[7.882354E-3,-1.5122727E-1,1.3258402E0,1.3444015E0,-1.5039887E-1,-1.2089683E-1,1.344814E-1],"categories":[],"categories_nodes":[],"categories_segments":[],"categories_sizes":[],"default_left":[0,0,0,0,0,0,0],"id":5,"left_children":[1,-1,3,5,-1,-1,-1],"loss_changes":[7.7460836E4,0E0,1.0897461E3,2.3289062E1,0E0,0E0,0E0],"parents":[2147483647,0,0,2,2,3,3],"right_children":[2,-1,4,6,-1,-1,-1],"split_conditions":[1E2,-1.5122727E-1,4.7458345E-1,3.4E1,-1.5039887E-1,-1.2089683E-1,1.344814E-1],"split_indices":[5003,0,3888,5022,0,0,0],"split_type":[0,0,0,0,0,0,0],"sum_hessian":[3.866075E4,1.7953143E4,2.0707605E4,2.0573188E4,1.3441777E2,2.8488228E0,2.057034E4],"tree_param":{"num_deleted":"0","num_feature":"5050","num_nodes":"7","size_leaf_vector":"1"}},{"base_weights":[8.132202E-3,-1.4403641E-1,1.2829095E0,1.3010032E0,-1.4320062E-1,-1.1463379E-1,1.3014151E-1],"categories":[],"categories_nodes":[],"categories_segments":[],"categories_sizes":[],"default_left":[0,0,0,0,0,0,0],"id":6,"left_children":[1,-1,3,5,-1,-1,-1],"loss_changes":[6.711357E4,0E0,9.515215E2,2.084961E1,0E0,0E0,0E0],"parents":[2147483647,0,0,2,2,3,3],"right_children":[2,-1,4,6,-1,-1,-1],"split_conditions":[1E2,-1.4403641E-1,4.7458345E-1,3.4E1,-1.4320062E-1,-1.1463379E-1,1.3014151E-1],"split_indices":[5003,0,3888,5022,0,0,0],"split_type":[0,0,0,0,0,0,0],"sum_hessian":[3.6344164E4,1.7012816E4,1.933135E4,1.9203887E4,1.274644E2,2.7630353E0,1.9201123E4],"tree_param":{"num_deleted":"0","num_feature":"5050","num_nodes":"7","size_leaf_vector":"1"}},{"base_weights":[8.299478E-3,-1.3812792E-1,1.2465167E0,1.2642094E0,-1.3726741E-1,-1.0913135E-1,1.2646225E-1],"categories":[],"categories_nodes":[],"categories_segments":[],"categories_sizes":[],"default_left":[0,0,0,0,0,0,0],"id":7,"left_children":[1,-1,3,5,-1,-1,-1],"loss_changes":[5.8492793E4,0E0,8.3478906E2,1.8753906E1,0E0,0E0,0E0],"parents":[2147483647,0,0,2,2,3,3],"right_children":[2,-1,4,6,-1,-1,-1],"split_conditions":[1E2,-1.3812792E-1,4.7458345E-1,3.4E1,-1.3726741E-1,-1.0913135E-1,1.2646225E-1],"split_indices":[5003,0,3888,5022,0,0,0],"split_type":[0,0,0,0,0,0,0],"sum_hessian":[3.399357E4,1.6017713E4,1.7975855E4,1.7855758E4,1.2009862E2,2.6674428E0,1.785309E4],"tree_param":{"num_deleted":"0","num_feature":"5050","num_nodes":"7","size_leaf_vector":"1"}},{"base_weights":[8.411409E-3,-1.3320754E-1,1.215412E0,1.2327594E0,-1.3230835E-1,-1.0423934E-1,1.2331752E-1],"categories":[],"categories_nodes":[],"categories_segments":[],"categories_sizes":[],"default_left":[0,0,0,0,0,0,0],"id":8,"left_children":[1,-1,3,5,-1,-1,-1],"loss_changes":[5.1229176E4,0E0,7.353125E2,1.6939453E1,0E0,0E0,0E0],"parents":[2147483647,0,0,2,2,3,3],"right_children":[2,-1,4,6,-1,-1,-1],"split_conditions":[1E2,-1.3320754E-1,4.7458345E-1,3.4E1,-1.3230835E-1,-1.0423934E-1,1.2331752E-1],"split_indices":[5003,0,3888,5022,0,0,0],"split_type":[0,0,0,0,0,0,0],"sum_hessian":[3.166065E4,1.500078E4,1.6659871E4,1.6547305E4,1.1256516E2,2.5655453E0,1.654474E4],"tree_param":{"num_deleted":"0","num_feature":"5050","num_nodes":"7","size_leaf_vector":"1"}},{"base_weights":[8.485336E-3,-1.2906457E-1,1.1886408E0,1.2056898E0,-1.281145E-1,-9.98434E-2,1.20610975E-1],"categories":[],"categories_nodes":[],"categories_segments":[],"categories_sizes":[],"default_left":[0,0,0,0,0,0,0],"id":9,"left_children":[1,-1,3,5,-1,-1,-1],"loss_changes":[4.5051848E4,0E0,6.4988477E2,1.5359375E1,0E0,0E0,0E0],"parents":[2147483647,0,0,2,2,3,3],"right_children":[2,-1,4,6,-1,-1,-1],"split_conditions":[1E2,-1.2906457E-1,4.7458345E-1,3.4E1,-1.281145E-1,-9.98434E-2,1.20610975E-1],"split_indices":[5003,0,3888,5022,0,0,0],"split_type":[0,0,0,0,0,0,0],"sum_hessian":[2.9382643E4,1.3986272E4,1.539637E4,1.5291326E4,1.0504458E2,2.460122E0,1.5288866E4],"tree_param":{"num_deleted":"0","num_feature":"5050","num_nodes":"7","size_leaf_vector":"1"}},{"base_weights":[8.533237E-3,-1.2554379E-1,1.1654613E0,1.1822519E0,-1.2453172E-1,-9.585527E-2,1.1826774E-1],"categories":[],"categories_nodes":[],"categories_segments":[],"categories_sizes":[],"default_left":[0,0,0,0,0,0,0],"id":10,"left_children":[1,-1,3,5,-1,-1,-1],"loss_changes":[3.9757215E4,0E0,5.7606055E2,1.3972656E1,0E0,0E0,0E0],"parents":[2147483647,0,0,2,2,3,3],"right_children":[2,-1,4,6,-1,-1,-1],"split_conditions":[1E2,-1.2554379E-1,4.7458345E-1,3.4E1,-1.2453172E-1,-9.585527E-2,1.1826774E-1],"split_indices":[5003,0,3888,5022,0,0,0],"split_type":[0,0,0,0,0,0,0],"sum_hessian":[2.71857E4,1.2991784E4,1.4193915E4,1.4096247E4,9.766803E1,2.3533535E0,1.4093894E4],"tree_param":{"num_deleted":"0","num_feature":"5050","num_nodes":"7","size_leaf_vector":"1"}},{"base_weights":[8.562558E-3,-1.225284E-1,1.1452874E0,1.1618539E0,-1.2144357E-1,-9.2205964E-2,1.1622862E-1],"categories":[],"categories_nodes":[],"categories_segments":[],"categories_sizes":[],"default_left":[0,0,0,0,0,0,0],"id":11,"left_children":[1,-1,3,5,-1,-1,-1],"loss_changes":[3.518905E4,0E0,5.1190625E2,1.2753906E1,0E0,0E0,0E0],"parents":[2147483647,0,0,2,2,3,3],"right_children":[2,-1,4,6,-1,-1,-1],"split_conditions":[1E2,-1.225284E-1,4.7458345E-1,3.4E1,-1.2144357E-1,-9.2205964E-2,1.1622862E-1],"split_indices":[5003,0,3888,5022,0,0,0],"split_type":[0,0,0,0,0,0,0],"sum_hessian":[2.5087445E4,1.2029772E4,1.3057673E4,1.2967145E4,9.052863E1,2.2469268E0,1.2964897E4],"tree_param":{"num_deleted":"0","num_feature":"5050","num_nodes":"7","size_leaf_vector":"1"}},{"base_weights":[8.578493E-3,-1.1992866E-1,1.12765E0,1.1440221E0,-1.1876034E-1,-8.884104E-2,1.1444624E-1],"categories":[],"categories_nodes":[],"categories_segments":[],"categories_sizes":[],"default_left":[0,0,0,0,0,0,0],"id":12,"left_children":[1,-1,3,5,-1,-1,-1],"loss_changes":[3.1225365E4,0E0,4.5589355E2,1.1672852E1,0E0,0E0,0E0],"parents":[2147483647,0,0,2,2,3,3],"right_children":[2,-1,4,6,-1,-1,-1],"split_conditions":[1E2,-1.1992866E-1,4.7458345E-1,3.4E1,-1.1876034E-1,-8.884104E-2,1.1444624E-1],"split_indices":[5003,0,3888,5022,0,0,0],"split_type":[0,0,0,0,0,0,0],"sum_hessian":[2.3099023E4,1.1108759E4,1.1990264E4,1.1906573E4,8.369023E1,2.142126E0,1.1904432E4],"tree_param":{"num_deleted":"0","num_feature":"5050","num_nodes":"7","size_leaf_vector":"1"}},{"base_weights":[8.584699E-3,-1.1767447E-1,1.1121694E0,1.1283728E0,-1.16411686E-1,-8.571721E-2,1.1288225E-1],"categories":[],"categories_nodes":[],"categories_segments":[],"categories_sizes":[],"default_left":[0,0,0,0,0,0,0],"id":13,"left_children":[1,-1,3,5,-1,-1,-1],"loss_changes":[2.7769418E4,0E0,4.06792E2,1.0712891E1,0E0,0E0,0E0],"parents":[2147483647,0,0,2,2,3,3],"right_children":[2,-1,4,6,-1,-1,-1],"split_conditions":[1E2,-1.1767447E-1,4.7458345E-1,3.4E1,-1.16411686E-1,-8.571721E-2,1.1288225E-1],"split_indices":[5003,0,3888,5022,0,0,0],"split_type":[0,0,0,0,0,0,0],"sum_hessian":[2.1226635E4,1.0234248E4,1.0992386E4,1.0915191E4,7.719425E1,2.0399075E0,1.0913151E4],"tree_param":{"num_deleted":"0","num_feature":"5050","num_nodes":"7","size_leaf_vector":"1"}},{"base_weights":[8.584609E-3,-1.1571027E-1,1.0985345E0,1.1145921E0,-1.1434152E-1,-8.279974E-2,1.1150523E-1],"categories":[],"categories_nodes":[],"categories_segments":[],"categories_sizes":[],"default_left":[0,0,0,0,0,0,0],"id":14,"left_children":[1,-1,3,5,-1,-1,-1],"loss_changes":[2.47435E4,0E0,3.635918E2,9.859375E0,0E0,0E0,0E0],"parents":[2147483647,0,0,2,2,3,3],"right_children":[2,-1,4,6,-1,-1,-1],"split_conditions":[1E2,-1.1571027E-1,4.7458345E-1,3.4E1,-1.1434152E-1,-8.279974E-2,1.1150523E-1],"split_indices":[5003,0,3888,5022,0,0,0],"split_type":[0,0,0,0,0,0,0],"sum_hessian":[1.947278E4,9.409441E3,1.0063337E4,9.992272E3,7.106499E1,1.9409633E0,9.990331E3],"tree_param":{"num_deleted":"0","num_feature":"5050","num_nodes":"7","size_leaf_vector":"1"}},{"base_weights":[8.578867E-3,-1.1399142E-1,1.086488E0,1.1024196E0,-1.12504564E-1,-8.006064E-2,1.1028918E-1],"categories":[],"categories_nodes":[],"categories_segments":[],"categories_sizes":[],"default_left":[0,0,0,0,0,0,0],"id":15,"left_children":[1,-1,3,5,-1,-1,-1],"loss_changes":[2.2084361E4,0E0,3.2547168E2,9.092773E0,0E0,0E0,0E0],"parents":[2147483647,0,0,2,2,3,3],"right_children":[2,-1,4,6,-1,-1,-1],"split_conditions":[1E2,-1.1399142E-1,4.7458345E-1,3.4E1,-1.12504564E-1,-8.006064E-2,1.1028918E-1],"split_indices":[5003,0,3888,5022,0,0,0],"split_type":[0,0,0,0,0,0,0],"sum_hessian":[1.7837158E4,8.635804E3,9.201354E3,9.13604E3,6.531376E1,1.845773E0,9.134194E3],"tree_param":{"num_deleted":"0","num_feature":"5050","num_nodes":"7","size_leaf_vector":"1"}},{"base_weights":[8.56945E-3,-1.1248162E-1,1.0758154E0,1.0916393E0,-1.1086372E-1,-7.7477224E-2,1.0921246E-1],"categories":[],"categories_nodes":[],"categories_segments":[],"categories_sizes":[],"default_left":[0,0,0,0,0,0,0],"id":16,"left_children":[1,-1,3,5,-1,-1,-1],"loss_changes":[1.9740066E4,0E0,2.917373E2,8.407227E0,0E0,0E0,0E0],"parents":[2147483647,0,0,2,2,3,3],"right_children":[2,-1,4,6,-1,-1,-1],"split_conditions":[1E2,-1.1248162E-1,4.7458345E-1,3.4E1,-1.1086372E-1,-7.7477224E-2,1.0921246E-1],"split_indices":[5003,0,3888,5022,0,0,0],"split_type":[0,0,0,0,0,0,0],"sum_hessian":[1.631748E4,7.9135044E3,8.403977E3,8.344034E3,5.994224E1,1.7546492E0,8.342279E3],"tree_param":{"num_deleted":"0","num_feature":"5050","num_nodes":"7","size_leaf_vector":"1"}},{"base_weights":[8.55699E-3,-1.111511E-1,1.0663366E0,1.0820684E0,-1.0938825E-1,-7.5031035E-2,1.08256854E-1],"categories":[],"categories_nodes":[],"categories_segments":[],"categories_sizes":[],"default_left":[0,0,0,0,0,0,0],"id":17,"left_children":[1,-1,3,5,-1,-1,-1],"loss_changes":[1.766753E4,0E0,2.618164E2,7.7890625E0,0E0,0E0,0E0],"parents":[2147483647,0,0,2,2,3,3],"right_children":[2,-1,4,6,-1,-1,-1],"split_conditions":[1E2,-1.111511E-1,4.7458345E-1,3.4E1,-1.0938825E-1,-7.5031035E-2,1.08256854E-1],"split_indices":[5003,0,3888,5022,0,0,0],"split_type":[0,0,0,0,0,0,0],"sum_hessian":[1.491001E4,7.2417607E3,7.6682495E3,7.6133047E3,5.4944954E1,1.6677701E0,7.6116367E3],"tree_param":{"num_deleted":"0","num_feature":"5050","num_nodes":"7","size_leaf_vector":"1"}},{"base_weights":[8.542008E-3,-1.09975174E-1,1.057899E0,-1.0830753E-1,1.073543E0,1.0740697E-1,-6.907819E-2],"categories":[],"categories_nodes":[],"categories_segments":[],"categories_sizes":[],"default_left":[0,0,0,0,0,0,0],"id":18,"left_children":[1,-1,3,-1,5,-1,-1],"loss_changes":[1.5830706E4,0E0,2.3534473E2,0E0,7.1918945E0,0E0,0E0],"parents":[2147483647,0,0,2,2,4,4],"right_children":[2,-1,4,-1,6,-1,-1],"split_conditions":[1E2,-1.09975174E-1,8.6E1,-1.0830753E-1,4.7458345E-1,1.0740697E-1,-6.907819E-2],"split_indices":[5003,0,5022,0,3888,0,0],"split_type":[0,0,0,0,0,0,0],"sum_hessian":[1.3610006E4,6.6190996E3,6.9909067E3,5.021662E1,6.94069E3,6.9390103E3,1.6798414E0],"tree_param":{"num_deleted":"0","num_feature":"5050","num_nodes":"7","size_leaf_vector":"1"}},{"base_weights":[8.525521E-3,-1.0893317E-1,1.0503725E0,1.0659777E0,-1.06846325E-1,-6.942077E-2,1.0664966E-1],"categories":[],"categories_nodes":[],"categories_segments":[],"categories_sizes":[],"default_left":[0,0,0,0,0,0,0],"id":19,"left_children":[1,-1,3,5,-1,-1,-1],"loss_changes":[1.4199236E4,0E0,2.1174658E2,6.5161133E0,0E0,0E0,0E0],"parents":[2147483647,0,0,2,2,3,3],"right_children":[2,-1,4,6,-1,-1,-1],"split_conditions":[1E2,-1.0893317E-1,4.7458345E-1,3.4E1,-1.06846325E-1,-6.942077E-2,1.0664966E-1],"split_indices":[5003,0,3888,5022,0,0,0],"split_type":[0,0,0,0,0,0,0],"sum_hessian":[1.2412097E4,6.0435728E3,6.368524E3,6.322456E3,4.606795E1,1.4693625E0,6.320987E3],"tree_param":{"num_deleted":"0","num_feature":"5050","num_nodes":"7","size_leaf_vector":"1"}},{"base_weights":[8.507142E-3,-1.0800775E-1,1.0436461E0,-1.0594972E-1,1.0591964E0,1.0597374E-1,-6.428067E-2],"categories":[],"categories_nodes":[],"categories_segments":[],"categories_sizes":[],"default_left":[0,0,0,0,0,0,0],"id":20,"left_children":[1,-1,3,-1,5,-1,-1],"loss_changes":[1.2747352E4,0E0,1.9076074E2,0E0,5.9819336E0,0E0,0E0],"parents":[2147483647,0,0,2,2,4,4],"right_children":[2,-1,4,-1,6,-1,-1],"split_conditions":[1E2,-1.0800775E-1,8.6E1,-1.0594972E-1,4.7458345E-1,1.0597374E-1,-6.428067E-2],"split_indices":[5003,0,5022,0,3888,0,0],"split_type":[0,0,0,0,0,0,0],"sum_hessian":[1.1310512E4,5.5129146E3,5.7975977E3,4.205875E1,5.7555386E3,5.754087E3,1.4518856E0],"tree_param":{"num_deleted":"0","num_feature":"5050","num_nodes":"7","size_leaf_vector":"1"}},{"base_weights":[8.487668E-3,-1.0718417E-1,1.0376236E0,1.053154E0,-1.0470229E-1,-6.4246856E-2,1.0536951E-1],"categories":[],"categories_nodes":[],"categories_segments":[],"categories_sizes":[],"default_left":[0,0,0,0,0,0,0],"id":21,"left_children":[1,-1,3,5,-1,-1,-1],"loss_changes":[1.1453073E4,0E0,1.719043E2,5.480957E0,0E0,0E0,0E0],"parents":[2147483647,0,0,2,2,3,3],"right_children":[2,-1,4,6,-1,-1,-1],"split_conditions":[1E2,-1.0718417E-1,4.7458345E-1,3.4E1,-1.0470229E-1,-6.4246856E-2,1.0536951E-1],"split_indices":[5003,0,3888,5022,0,0,0],"split_type":[0,0,0,0,0,0,0],"sum_hessian":[1.0299325E4,5.024668E3,5.274657E3,5.236143E3,3.8513916E1,1.2916903E0,5.2348516E3],"tree_param":{"num_deleted":"0","num_feature":"5050","num_nodes":"7","size_leaf_vector":"1"}},{"base_weights":[8.4667E-3,-1.06449895E-1,1.0322223E0,-1.0393131E-1,1.0477264E0,1.0482861E-1,-5.9711915E-2],"categories":[],"categories_nodes":[],"categories_segments":[],"categories_sizes":[],"default_left":[0,0,0,0,0,0,0],"id":22,"left_children":[1,-1,3,-1,5,-1,-1],"loss_changes":[1.0297525E4,0E0,1.5516455E2,0E0,5.0097656E0,0E0,0E0],"parents":[2147483647,0,0,2,2,4,4],"right_children":[2,-1,4,-1,6,-1,-1],"split_conditions":[1E2,-1.06449895E-1,8.6E1,-1.0393131E-1,4.7458345E-1,1.0482861E-1,-5.9711915E-2],"split_indices":[5003,0,5022,0,3888,0,0],"split_type":[0,0,0,0,0,0,0],"sum_hessian":[9.372558E3,4.576273E3,4.796285E3,3.5139942E1,4.7611455E3,4.7598887E3,1.2567589E0],"tree_param":{"num_deleted":"0","num_feature":"5050","num_nodes":"7","size_leaf_vector":"1"}},{"base_weights":[8.444395E-3,-1.0579409E-1,1.0273695E0,1.042871E0,-1.0283512E-1,-5.943143E-2,1.04343764E-1],"categories":[],"categories_nodes":[],"categories_segments":[],"categories_sizes":[],"default_left":[0,0,0,0,0,0,0],"id":23,"left_children":[1,-1,3,5,-1,-1,-1],"loss_changes":[9.264435E3,0E0,1.4001758E2,4.6347656E0,0E0,0E0,0E0],"parents":[2147483647,0,0,2,2,3,3],"right_children":[2,-1,4,6,-1,-1,-1],"split_conditions":[1E2,-1.0579409E-1,4.7458345E-1,3.4E1,-1.0283512E-1,-5.943143E-2,1.04343764E-1],"split_indices":[5003,0,3888,5022,0,0,0],"split_type":[0,0,0,0,0,0,0],"sum_hessian":[8.524337E3,4.1651455E3,4.359191E3,4.3270547E3,3.213624E1,1.1344233E0,4.3259204E3],"tree_param":{"num_deleted":"0","num_feature":"5050","num_nodes":"7","size_leaf_vector":"1"}},{"base_weights":[8.4208995E-3,-1.052075E-1,1.0230026E0,-1.0214503E-1,1.0385041E0,1.0390866E-1,-5.5359133E-2],"categories":[],"categories_nodes":[],"categories_segments":[],"categories_sizes":[],"default_left":[0,0,0,0,0,0,0],"id":24,"left_children":[1,-1,3,-1,5,-1,-1],"loss_changes":[8.339702E3,0E0,1.266001E2,0E0,4.2211914E0,0E0,0E0],"parents":[2147483647,0,0,2,2,4,4],"right_children":[2,-1,4,-1,6,-1,-1],"split_conditions":[1E2,-1.052075E-1,8.6E1,-1.0214503E-1,4.7458345E-1,1.0390866E-1,-5.5359133E-2],"split_indices":[5003,0,5022,0,3888,0,0],"split_type":[0,0,0,0,0,0,0],"sum_hessian":[7.7489424E3,3.7887246E3,3.9602178E3,2.9312986E1,3.9309048E3,3.9298145E3,1.0901424E0],"tree_param":{"num_deleted":"0","num_feature":"5050","num_nodes":"7","size_leaf_vector":"1"}},{"base_weights":[8.396469E-3,-1.0468208E-1,1.0190662E0,1.0345813E0,-1.0115135E-1,-1.5481996E-2,1.03517726E-1],"categories":[],"categories_nodes":[],"categories_segments":[],"categories_sizes":[],"default_left":[0,0,0,0,0,0,0],"id":25,"left_children":[1,-1,3,5,-1,-1,-1],"loss_changes":[7.511072E3,0E0,1.14380615E2,2.690918E0,0E0,0E0,0E0],"parents":[2147483647,0,0,2,2,3,3],"right_children":[2,-1,4,6,-1,-1,-1],"split_conditions":[1E2,-1.0468208E-1,4.7458345E-1,1.04E2,-1.0115135E-1,-1.5481996E-2,1.03517726E-1],"split_indices":[5003,0,3888,5022,0,0,0],"split_type":[0,0,0,0,0,0,0],"sum_hessian":[7.040887E3,3.4445132E3,3.5963738E3,3.56959E3,2.678385E1,1.6579355E0,3.5679321E3],"tree_param":{"num_deleted":"0","num_feature":"5050","num_nodes":"7","size_leaf_vector":"1"}},{"base_weights":[8.374497E-3,-1.0421081E-1,1.0154911E0,-1.00532554E-1,1.0310522E0,-4.225329E-2,1.03166185E-1],"categories":[],"categories_nodes":[],"categories_segments":[],"categories_sizes":[],"default_left":[0,0,0,0,1,0,0],"id":26,"left_children":[1,-1,3,-1,5,-1,-1],"loss_changes":[6.7677876E3,0E0,1.0373804E2,0E0,3.307373E0,0E0,0E0],"parents":[2147483647,0,0,2,2,4,4],"right_children":[2,-1,4,-1,6,-1,-1],"split_conditions":[1E2,-1.0421081E-1,8.6E1,-1.00532554E-1,3.0268613E-2,-4.225329E-2,1.03166185E-1],"split_indices":[5003,0,5022,0,3888,0,0],"split_type":[0,0,0,0,0,0,0],"sum_hessian":[6.3950264E3,3.1301055E3,3.264921E3,2.4463142E1,3.2404575E3,1.0681437E0,3.2393894E3],"tree_param":{"num_deleted":"0","num_feature":"5050","num_nodes":"7","size_leaf_vector":"1"}},{"base_weights":[8.347327E-3,-1.0378758E-1,1.01227E0,-9.973008E-2,1.0278509E0,-4.0704977E-2,1.0284956E-1],"categories":[],"categories_nodes":[],"categories_segments":[],"categories_sizes":[],"default_left":[0,0,0,0,1,0,0],"id":27,"left_children":[1,-1,3,-1,5,-1,-1],"loss_changes":[6.100545E3,0E0,9.383179E1,0E0,3.1398926E0,0E0,0E0],"parents":[2147483647,0,0,2,2,4,4],"right_children":[2,-1,4,-1,6,-1,-1],"split_conditions":[1E2,-1.0378758E-1,8.6E1,-9.973008E-2,3.0268613E-2,-4.0704977E-2,1.0284956E-1],"split_indices":[5003,0,5022,0,3888,0,0],"split_type":[0,0,0,0,0,0,0],"sum_hessian":[5.8062334E3,2.8432004E3,2.963033E3,2.231196E1,2.940721E3,1.0375336E0,2.9396833E3],"tree_param":{"num_deleted":"0","num_feature":"5050","num_nodes":"7","size_leaf_vector":"1"}},{"base_weights":[8.320616E-3,-1.0340704E-1,1.0093488E0,1.0249852E0,-9.882633E-2,-1.3837921E-2,1.0256413E-1],"categories":[],"categories_nodes":[],"categories_segments":[],"categories_sizes":[],"default_left":[0,0,0,0,0,0,0],"id":28,"left_children":[1,-1,3,5,-1,-1,-1],"loss_changes":[5.5010845E3,0E0,8.501587E1,2.1791992E0,0E0,0E0,0E0],"parents":[2147483647,0,0,2,2,3,3],"right_children":[2,-1,4,6,-1,-1,-1],"split_conditions":[1E2,-1.0340704E-1,4.7458345E-1,1.04E2,-9.882633E-2,-1.3837921E-2,1.0256413E-1],"split_indices":[5003,0,3888,5022,0,0,0],"split_type":[0,0,0,0,0,0,0],"sum_hessian":[5.269951E3,2.581622E3,2.6883289E3,2.6679324E3,2.0396559E1,1.385623E0,2.6665466E3],"tree_param":{"num_deleted":"0","num_feature":"5050","num_nodes":"7","size_leaf_vector":"1"}},{"base_weights":[8.296209E-3,-1.0306447E-1,1.0066794E0,-9.8212324E-2,1.0223814E0,-2.226033E-2,1.0229985E-1],"categories":[],"categories_nodes":[],"categories_segments":[],"categories_sizes":[],"default_left":[0,0,0,0,1,0,0],"id":29,"left_children":[1,-1,3,-1,5,-1,-1],"loss_changes":[4.962118E3,0E0,7.718628E1,0E0,2.0876465E0,0E0,0E0],"parents":[2147483647,0,0,2,2,4,4],"right_children":[2,-1,4,-1,6,-1,-1],"split_conditions":[1E2,-1.0306447E-1,8.6E1,-9.8212324E-2,2.585584E-2,-2.226033E-2,1.0229985E-1],"split_indices":[5003,0,5022,0,2208,0,0],"split_type":[0,0,0,0,0,0,0],"sum_hessian":[4.781865E3,2.3433198E3,2.4385457E3,1.8619785E1,2.4199258E3,1.0206585E0,2.4189053E3],"tree_param":{"num_deleted":"0","num_feature":"5050","num_nodes":"7","size_leaf_vector":"1"}},{"base_weights":[8.264524E-3,-1.027557E-1,1.0042421E0,1.0200205E0,-9.732013E-2,-1.2722306E-2,1.0207398E-1],"categories":[],"categories_nodes":[],"categories_segments":[],"categories_sizes":[],"default_left":[0,0,0,0,0,0,0],"id":30,"left_children":[1,-1,3,5,-1,-1,-1],"loss_changes":[4.477221E3,0E0,7.002344E1,1.9418945E0,0E0,0E0,0E0],"parents":[2147483647,0,0,2,2,3,3],"right_children":[2,-1,4,6,-1,-1,-1],"split_conditions":[1E2,-1.027557E-1,4.7458345E-1,1.04E2,-9.732013E-2,-1.2722306E-2,1.0207398E-1],"split_indices":[5003,0,3888,5022,0,0,0],"split_type":[0,0,0,0,0,0,0],"sum_hessian":[4.337843E3,2.126373E3,2.21147E3,2.1944443E3,1.7025665E1,1.2649747E0,2.1931794E3],"tree_param":{"num_deleted":"0","num_feature":"5050","num_nodes":"7","size_leaf_vector":"1"}},{"base_weights":[8.237737E-3,-1.02477096E-1,1.0020171E0,-9.669277E-2,1.0178841E0,-1.47247305E-2,1.018553E-1],"categories":[],"categories_nodes":[],"categories_segments":[],"categories_sizes":[],"default_left":[0,0,0,0,1,0,0],"id":31,"left_children":[1,-1,3,-1,5,-1,-1],"loss_changes":[4.0407896E3,0E0,6.3659424E1,0E0,1.7011719E0,0E0,0E0],"parents":[2147483647,0,0,2,2,4,4],"right_children":[2,-1,4,-1,6,-1,-1],"split_conditions":[1E2,-1.02477096E-1,8.6E1,-9.669277E-2,2.6099097E-2,-1.47247305E-2,1.018553E-1],"split_indices":[5003,0,5022,0,3565,0,0],"split_type":[0,0,0,0,0,0,0],"sum_hessian":[3.9341555E3,1.928989E3,2.0051666E3,1.5550595E1,1.9896161E3,1.0157022E0,1.9886003E3],"tree_param":{"num_deleted":"0","num_feature":"5050","num_nodes":"7","size_leaf_vector":"1"}},{"base_weights":[8.205028E-3,-1.0222534E-1,9.999674E-1,1.0159391E0,-9.579386E-2,-1.1729209E-2,1.01673E-1],"categories":[],"categories_nodes":[],"categories_segments":[],"categories_sizes":[],"default_left":[0,0,0,0,0,0,0],"id":32,"left_children":[1,-1,3,5,-1,-1,-1],"loss_changes":[3.6477163E3,0E0,5.784912E1,1.7364502E0,0E0,0E0,0E0],"parents":[2147483647,0,0,2,2,3,3],"right_children":[2,-1,4,6,-1,-1,-1],"split_conditions":[1E2,-1.0222534E-1,4.7458345E-1,1.04E2,-9.579386E-2,-1.1729209E-2,1.01673E-1],"split_indices":[5003,0,3888,5022,0,0,0],"split_type":[0,0,0,0,0,0,0],"sum_hessian":[3.567299E3,1.7495035E3,1.8177955E3,1.803564E3,1.4231598E1,1.1548905E0,1.802409E3],"tree_param":{"num_deleted":"0","num_feature":"5050","num_nodes":"7","size_leaf_vector":"1"}},{"base_weights":[8.171383E-3,-1.0199755E-1,9.980887E-1,-9.512847E-2,1.0141686E0,-7.479386E-3,1.0149E-1],"categories":[],"categories_nodes":[],"categories_segments":[],"categories_sizes":[],"default_left":[0,0,0,0,1,0,0],"id":33,"left_children":[1,-1,3,-1,5,-1,-1],"loss_changes":[3.2935803E3,0E0,5.264331E1,0E0,1.3787842E0,0E0,0E0],"parents":[2147483647,0,0,2,2,4,4],"right_children":[2,-1,4,-1,6,-1,-1],"split_conditions":[1E2,-1.0199755E-1,8.6E1,-9.512847E-2,2.6374893E-2,-7.479386E-3,1.0149E-1],"split_indices":[5003,0,5022,0,2208,0,0],"split_type":[0,0,0,0,0,0,0],"sum_hessian":[3.2340422E3,1.5863739E3,1.6476682E3,1.3004212E1,1.6346641E3,1.0291333E0,1.6336349E3],"tree_param":{"num_deleted":"0","num_feature":"5050","num_nodes":"7","size_leaf_vector":"1"}},{"base_weights":[8.13423E-3,-1.01791136E-1,9.963366E-1,1.0125592E0,-9.4209895E-2,-1.0849004E-2,1.0134306E-1],"categories":[],"categories_nodes":[],"categories_segments":[],"categories_sizes":[],"default_left":[0,0,0,0,0,0,0],"id":34,"left_children":[1,-1,3,5,-1,-1,-1],"loss_changes":[2.9743496E3,0E0,4.7943726E1,1.5579834E0,0E0,0E0,0E0],"parents":[2147483647,0,0,2,2,3,3],"right_children":[2,-1,4,6,-1,-1,-1],"split_conditions":[1E2,-1.01791136E-1,4.7458345E-1,1.04E2,-9.4209895E-2,-1.0849004E-2,1.0134306E-1],"split_indices":[5003,0,3888,5022,0,0,0],"split_type":[0,0,0,0,0,0,0],"sum_hessian":[2.931455E3,1.438175E3,1.49328E3,1.4813604E3,1.1919766E1,1.054563E0,1.4803058E3],"tree_param":{"num_deleted":"0","num_feature":"5050","num_nodes":"7","size_leaf_vector":"1"}},{"base_weights":[8.096109E-3,-1.0160377E-1,9.947246E-1,-9.348335E-2,1.0110699E0,3.114643E-3,1.0118765E-1],"categories":[],"categories_nodes":[],"categories_segments":[],"categories_sizes":[],"default_left":[0,0,0,0,1,0,0],"id":35,"left_children":[1,-1,3,-1,5,-1,-1],"loss_changes":[2.6865293E3,0E0,4.365503E1,0E0,1.0302734E0,0E0,0E0],"parents":[2147483647,0,0,2,2,4,4],"right_children":[2,-1,4,-1,6,-1,-1],"split_conditions":[1E2,-1.0160377E-1,8.6E1,-9.348335E-2,2.7007088E-2,3.114643E-3,1.0118765E-1],"split_indices":[5003,0,5022,0,2208,0,0],"split_type":[0,0,0,0,0,0,0],"sum_hessian":[2.6567727E3,1.3035942E3,1.3531785E3,1.0894477E1,1.3422839E3,1.1365942E0,1.3411473E3],"tree_param":{"num_deleted":"0","num_feature":"5050","num_nodes":"7","size_leaf_vector":"1"}},{"base_weights":[8.060974E-3,-1.01433374E-1,9.9319285E-1,1.0097342E0,-9.254039E-2,1.1938508E-2,1.0106962E-1],"categories":[],"categories_nodes":[],"categories_segments":[],"categories_sizes":[],"default_left":[0,0,0,0,0,0,0],"id":36,"left_children":[1,-1,3,5,-1,-1,-1],"loss_changes":[2.426897E3,0E0,3.987903E1,9.21875E-1,0E0,0E0,0E0],"parents":[2147483647,0,0,2,2,3,3],"right_children":[2,-1,4,6,-1,-1,-1],"split_conditions":[1E2,-1.01433374E-1,4.7458345E-1,1.08E2,-9.254039E-2,1.1938508E-2,1.0106962E-1],"split_indices":[5003,0,3888,5022,0,0,0],"split_type":[0,0,0,0,0,0,0],"sum_hessian":[2.4075632E3,1.181423E3,1.2261403E3,1.216129E3,1.0011224E1,1.4476146E0,1.2146814E3],"tree_param":{"num_deleted":"0","num_feature":"5050","num_nodes":"7","size_leaf_vector":"1"}},{"base_weights":[8.01985E-3,-1.0127809E-1,9.9176043E-1,-9.174951E-2,1.0084504E0,9.825981E-3,1.00950435E-1],"categories":[],"categories_nodes":[],"categories_segments":[],"categories_sizes":[],"default_left":[0,0,0,0,1,0,0],"id":37,"left_children":[1,-1,3,-1,5,-1,-1],"loss_changes":[2.1926438E3,0E0,3.6356934E1,0E0,9.5861816E-1,0E0,0E0],"parents":[2147483647,0,0,2,2,4,4],"right_children":[2,-1,4,-1,6,-1,-1],"split_conditions":[1E2,-1.0127809E-1,8.6E1,-9.174951E-2,3.3765323E-2,9.825981E-3,1.00950435E-1],"split_indices":[5003,0,5022,0,3888,0,0],"split_type":[0,0,0,0,0,0,0],"sum_hessian":[2.1814663E3,1.0705531E3,1.1109132E3,9.159307E0,1.1017539E3,1.3832316E0,1.1003706E3],"tree_param":{"num_deleted":"0","num_feature":"5050","num_nodes":"7","size_leaf_vector":"1"}},{"base_weights":[7.981971E-3,-1.0113621E-1,9.904026E-1,1.0073222E0,-9.0746425E-2,1.0453246E-2,1.0084089E-1],"categories":[],"categories_nodes":[],"categories_segments":[],"categories_sizes":[],"default_left":[0,0,0,0,0,0,0],"id":38,"left_children":[1,-1,3,5,-1,-1,-1],"loss_changes":[1.9812388E3,0E0,3.3264465E1,8.748169E-1,0E0,0E0,0E0],"parents":[2147483647,0,0,2,2,3,3],"right_children":[2,-1,4,6,-1,-1,-1],"split_conditions":[1E2,-1.0113621E-1,4.7458345E-1,1.08E2,-9.0746425E-2,1.0453246E-2,1.0084089E-1],"split_indices":[5003,0,3888,5022,0,0,0],"split_type":[0,0,0,0,0,0,0],"sum_hessian":[1.9764199E3,9.699675E2,1.0064524E3,9.9802423E2,8.428184E0,1.3168149E0,9.967074E2],"tree_param":{"num_deleted":"0","num_feature":"5050","num_nodes":"7","size_leaf_vector":"1"}},{"base_weights":[7.936733E-3,-1.0100621E-1,9.8911226E-1,-8.988582E-2,1.0062159E0,8.56734E-3,1.0074028E-1],"categories":[],"categories_nodes":[],"categories_segments":[],"categories_sizes":[],"default_left":[0,0,0,0,1,0,0],"id":39,"left_children":[1,-1,3,-1,5,-1,-1],"loss_changes":[1.7903943E3,0E0,3.0378113E1,0E0,9.0252686E-1,0E0,0E0],"parents":[2147483647,0,0,2,2,4,4],"right_children":[2,-1,4,-1,6,-1,-1],"split_conditions":[1E2,-1.0100621E-1,8.6E1,-8.988582E-2,3.3765323E-2,8.56734E-3,1.0074028E-1],"split_indices":[5003,0,5022,0,3888,0,0],"split_type":[0,0,0,0,0,0,0],"sum_hessian":[1.7904812E3,8.7873645E2,9.117447E2,7.7227683E0,9.040219E2,1.2582403E0,9.027637E2],"tree_param":{"num_deleted":"0","num_feature":"5050","num_nodes":"7","size_leaf_vector":"1"}},{"base_weights":[7.88287E-3,-1.008867E-1,9.878709E-1,1.0052425E0,-8.881499E-2,9.088342E-3,1.00647084E-1],"categories":[],"categories_nodes":[],"categories_segments":[],"categories_sizes":[],"default_left":[0,0,0,0,0,0,0],"id":40,"left_children":[1,-1,3,5,-1,-1,-1],"loss_changes":[1.6180664E3,0E0,2.7841003E1,8.2922363E-1,0E0,0E0,0E0],"parents":[2147483647,0,0,2,2,3,3],"right_children":[2,-1,4,6,-1,-1,-1],"split_conditions":[1E2,-1.008867E-1,4.7458345E-1,1.08E2,-8.881499E-2,9.088342E-3,1.00647084E-1],"split_indices":[5003,0,3888,5022,0,0,0],"split_type":[0,0,0,0,0,0,0],"sum_hessian":[1.6219077E3,7.96009E2,8.258988E2,8.187812E2,7.117584E0,1.1990496E0,8.1758215E2],"tree_param":{"num_deleted":"0","num_feature":"5050","num_nodes":"7","size_leaf_vector":"1"}},{"base_weights":[7.833871E-3,-1.0077643E-1,9.866743E-1,-8.787765E-2,1.0042704E0,7.4026594E-3,1.0056081E-1],"categories":[],"categories_nodes":[],"categories_segments":[],"categories_sizes":[],"default_left":[0,0,0,0,1,0,0],"id":41,"left_children":[1,-1,3,-1,5,-1,-1],"loss_changes":[1.462454E3,0E0,2.5472046E1,0E0,8.494873E-1,0E0,0E0],"parents":[2147483647,0,0,2,2,4,4],"right_children":[2,-1,4,-1,6,-1,-1],"split_conditions":[1E2,-1.0077643E-1,8.6E1,-8.787765E-2,3.3765323E-2,7.4026594E-3,1.0056081E-1],"split_indices":[5003,0,5022,0,3888,0,0],"split_type":[0,0,0,0,0,0,0],"sum_hessian":[1.469121E3,7.21008E2,7.481129E2,6.533418E0,7.415795E2,1.1457064E0,7.4043384E2],"tree_param":{"num_deleted":"0","num_feature":"5050","num_nodes":"7","size_leaf_vector":"1"}},{"base_weights":[7.777454E-3,-1.0067419E-1,9.8550457E-1,1.0034117E0,-8.673516E-2,7.831188E-3,1.0048008E-1],"categories":[],"categories_nodes":[],"categories_segments":[],"categories_sizes":[],"default_left":[0,0,0,0,0,0,0],"id":42,"left_children":[1,-1,3,5,-1,-1,-1],"loss_changes":[1.3218896E3,0E0,2.338678E1,7.855835E-1,0E0,0E0,0E0],"parents":[2147483647,0,0,2,2,3,3],"right_children":[2,-1,4,6,-1,-1,-1],"split_conditions":[1E2,-1.0067419E-1,4.7458345E-1,1.08E2,-8.673516E-2,7.831188E-3,1.0048008E-1],"split_indices":[5003,0,3888,5022,0,0,0],"split_type":[0,0,0,0,0,0,0],"sum_hessian":[1.3306532E3,6.5302496E2,6.7762823E2,6.7159595E2,6.0322742E0,1.092967E0,6.70503E2],"tree_param":{"num_deleted":"0","num_feature":"5050","num_nodes":"7","size_leaf_vector":"1"}},{"base_weights":[7.70652E-3,-1.0057896E-1,9.843575E-1,-8.5718066E-2,1.0025362E0,6.32151E-3,1.0040452E-1],"categories":[],"categories_nodes":[],"categories_segments":[],"categories_sizes":[],"default_left":[0,0,0,0,1,0,0],"id":43,"left_children":[1,-1,3,-1,5,-1,-1],"loss_changes":[1.1948942E3,0E0,2.143927E1,0E0,8.0010986E-1,0E0,0E0],"parents":[2147483647,0,0,2,2,4,4],"right_children":[2,-1,4,-1,6,-1,-1],"split_conditions":[1E2,-1.0057896E-1,8.6E1,-8.5718066E-2,3.3765323E-2,6.32151E-3,1.0040452E-1],"split_indices":[5003,0,5022,0,3888,0,0],"split_type":[0,0,0,0,0,0,0],"sum_hessian":[1.2051685E3,5.914135E2,6.13755E2,5.5482764E0,6.082067E2,1.0443499E0,6.0716235E2],"tree_param":{"num_deleted":"0","num_feature":"5050","num_nodes":"7","size_leaf_vector":"1"}},{"base_weights":[7.639415E-3,-1.0048973E-1,9.832179E-1,1.001757E0,-8.450388E-2,3.0582268E-2,1.0033269E-1],"categories":[],"categories_nodes":[],"categories_segments":[],"categories_sizes":[],"default_left":[0,0,0,0,0,0,0],"id":44,"left_children":[1,-1,3,5,-1,-1,-1],"loss_changes":[1.0801597E3,0E0,1.9722473E1,2.9595947E-1,0E0,0E0,0E0],"parents":[2147483647,0,0,2,2,3,3],"right_children":[2,-1,4,6,-1,-1,-1],"split_conditions":[1E2,-1.0048973E-1,4.7458345E-1,1.19E2,-8.450388E-2,3.0582268E-2,1.0033269E-1],"split_indices":[5003,0,3888,5022,0,0,0],"split_type":[0,0,0,0,0,0,0],"sum_hessian":[1.0914902E3,5.355852E2,5.55905E2,5.5077203E2,5.1329494E0,1.6803315E0,5.4909174E2],"tree_param":{"num_deleted":"0","num_feature":"5050","num_nodes":"7","size_leaf_vector":"1"}},{"base_weights":[7.585412E-3,-1.00405574E-1,9.8204416E-1,-8.344948E-2,1.0009458E0,1.5084139E-2,1.00239925E-1],"categories":[],"categories_nodes":[],"categories_segments":[],"categories_sizes":[],"default_left":[0,0,0,0,1,0,0],"id":45,"left_children":[1,-1,3,-1,5,-1,-1],"loss_changes":[9.7648175E2,0E0,1.8158966E1,0E0,4.663391E-1,0E0,0E0],"parents":[2147483647,0,0,2,2,4,4],"right_children":[2,-1,4,-1,6,-1,-1],"split_conditions":[1E2,-1.00405574E-1,8.6E1,-8.344948E-2,2.822257E-2,1.5084139E-2,1.00239925E-1],"split_indices":[5003,0,5022,0,2208,0,0],"split_type":[0,0,0,0,0,0,0],"sum_hessian":[9.8854474E2,4.8500403E2,5.035407E2,4.7411804E0,4.9879953E2,1.0301528E0,4.9776935E2],"tree_param":{"num_deleted":"0","num_feature":"5050","num_nodes":"7","size_leaf_vector":"1"}},{"base_weights":[7.5162025E-3,-1.00325644E-1,9.808566E-1,1.0001745E0,-8.2166016E-2,2.7425185E-2,1.00199305E-1],"categories":[],"categories_nodes":[],"categories_segments":[],"categories_sizes":[],"default_left":[0,0,0,0,0,0,0],"id":46,"left_children":[1,-1,3,5,-1,-1,-1],"loss_changes":[8.8277295E2,0E0,1.6738525E1,3.2284546E-1,0E0,0E0,0E0],"parents":[2147483647,0,0,2,2,3,3],"right_children":[2,-1,4,6,-1,-1,-1],"split_conditions":[1E2,-1.00325644E-1,4.7458345E-1,1.19E2,-8.2166016E-2,2.7425185E-2,1.00199305E-1],"split_indices":[5003,0,3888,5022,0,0,0],"split_type":[0,0,0,0,0,0,0],"sum_hessian":[8.9528564E2,4.3918253E2,4.5610312E2,4.517072E2,4.395909E0,1.5081514E0,4.5019907E2],"tree_param":{"num_deleted":"0","num_feature":"5050","num_nodes":"7","size_leaf_vector":"1"}},{"base_weights":[7.436104E-3,-1.00249104E-1,9.79649E-1,-8.104666E-2,9.9939585E-1,1.9284593E-2,1.0010532E-1],"categories":[],"categories_nodes":[],"categories_segments":[],"categories_sizes":[],"default_left":[0,0,0,0,1,0,0],"id":47,"left_children":[1,-1,3,-1,5,-1,-1],"loss_changes":[7.980725E2,0E0,1.544931E1,0E0,3.5510254E-1,0E0,0E0],"parents":[2147483647,0,0,2,2,4,4],"right_children":[2,-1,4,-1,6,-1,-1],"split_conditions":[1E2,-1.00249104E-1,8.6E1,-8.104666E-2,2.857228E-2,1.9284593E-2,1.0010532E-1],"split_indices":[5003,0,5022,0,2208,0,0],"split_type":[0,0,0,0,0,0,0],"sum_hessian":[8.108133E2,3.976777E2,4.131356E2,4.070698E0,4.090649E2,1.0795172E0,4.0798538E2],"tree_param":{"num_deleted":"0","num_feature":"5050","num_nodes":"7","size_leaf_vector":"1"}},{"base_weights":[7.351849E-3,-1.0017518E-1,9.7839475E-1,9.98638E-1,-7.97167E-2,2.447453E-2,1.00074284E-1],"categories":[],"categories_nodes":[],"categories_segments":[],"categories_sizes":[],"default_left":[0,0,0,0,0,0,0],"id":48,"left_children":[1,-1,3,5,-1,-1,-1],"loss_changes":[7.2150604E2,0E0,1.4283051E1,3.4448242E-1,0E0,0E0,0E0],"parents":[2147483647,0,0,2,2,3,3],"right_children":[2,-1,4,6,-1,-1,-1],"split_conditions":[1E2,-1.0017518E-1,4.7458345E-1,1.19E2,-7.97167E-2,2.447453E-2,1.00074284E-1],"split_indices":[5003,0,3888,5022,0,0,0],"split_type":[0,0,0,0,0,0,0],"sum_hessian":[7.3431836E2,3.6008646E2,3.742319E2,3.70446E2,3.7858896E0,1.357917E0,3.690881E2],"tree_param":{"num_deleted":"0","num_feature":"5050","num_nodes":"7","size_leaf_vector":"1"}},{"base_weights":[7.2695822E-3,-1.0010314E-1,9.7711766E-1,-7.8525245E-2,9.978486E-1,2.2432245E-2,9.9975E-2],"categories":[],"categories_nodes":[],"categories_segments":[],"categories_sizes":[],"default_left":[0,0,0,0,1,0,0],"id":49,"left_children":[1,-1,3,-1,5,-1,-1],"loss_changes":[6.523029E2,0E0,1.3205719E1,0E0,2.7062988E-1,0E0,0E0],"parents":[2147483647,0,0,2,2,4,4],"right_children":[2,-1,4,-1,6,-1,-1],"split_conditions":[1E2,-1.0010314E-1,8.6E1,-7.8525245E-2,2.888406E-2,2.2432245E-2,9.9975E-2],"split_indices":[5003,0,5022,0,2208,0,0],"split_type":[0,0,0,0,0,0,0],"sum_hessian":[6.650453E2,3.2604303E2,3.3900226E2,3.5125892E0,3.3548965E2,1.1143801E0,3.3437527E2],"tree_param":{"num_deleted":"0","num_feature":"5050","num_nodes":"7","size_leaf_vector":"1"}},{"base_weights":[7.1877767E-3,-1.0003225E-1,9.7575676E-1,9.9709207E-1,-7.717926E-2,2.1727031E-2,9.995263E-2],"categories":[],"categories_nodes":[],"categories_segments":[],"categories_sizes":[],"default_left":[0,0,0,0,0,0,0],"id":50,"left_children":[1,-1,3,5,-1,-1,-1],"loss_changes":[5.897336E2,0E0,1.2257568E1,3.614502E-1,0E0,0E0,0E0],"parents":[2147483647,0,0,2,2,3,3],"right_children":[2,-1,4,6,-1,-1,-1],"split_conditions":[1E2,-1.0003225E-1,4.7458345E-1,1.19E2,-7.717926E-2,2.1727031E-2,9.995263E-2],"split_indices":[5003,0,3888,5022,0,0,0],"split_type":[0,0,0,0,0,0,0],"sum_hessian":[6.0233215E2,2.9521512E2,3.07117E2,3.0383698E2,3.280027E0,1.2263323E0,3.0261066E2],"tree_param":{"num_deleted":"0","num_feature":"5050","num_nodes":"7","size_leaf_vector":"1"}},{"base_weights":[7.084781E-3,-9.996181E-2,9.7437173E-1,-7.590637E-2,9.9624383E-1,2.4584431E-2,9.989148E-2],"categories":[],"categories_nodes":[],"categories_segments":[],"categories_sizes":[],"default_left":[0,0,0,0,1,0,0],"id":51,"left_children":[1,-1,3,-1,5,-1,-1],"loss_changes":[5.331669E2,0E0,1.1342804E1,0E0,3.0795288E-1,0E0,0E0],"parents":[2147483647,0,0,2,2,4,4],"right_children":[2,-1,4,-1,6,-1,-1],"split_conditions":[1E2,-9.996181E-2,8.6E1,-7.590637E-2,3.6241993E-2,2.4584431E-2,9.989148E-2],"split_indices":[5003,0,5022,0,3888,0,0],"split_type":[0,0,0,0,0,0,0],"sum_hessian":[5.45528E2,2.6730118E2,2.782268E2,3.0468798E0,2.7517993E2,1.3059995E0,2.7387393E2],"tree_param":{"num_deleted":"0","num_feature":"5050","num_nodes":"7","size_leaf_vector":"1"}},{"base_weights":[6.9962745E-3,-9.9891104E-2,9.7289956E-1,9.954814E-1,-7.454025E-2,1.9175341E-2,9.982949E-2],"categories":[],"categories_nodes":[],"categories_segments":[],"categories_sizes":[],"default_left":[0,0,0,0,0,0,0],"id":52,"left_children":[1,-1,3,5,-1,-1,-1],"loss_changes":[4.82028E2,0E0,1.0562347E1,3.7442017E-1,0E0,0E0,0E0],"parents":[2147483647,0,0,2,2,3,3],"right_children":[2,-1,4,6,-1,-1,-1],"split_conditions":[1E2,-9.9891104E-2,4.7458345E-1,1.19E2,-7.454025E-2,1.9175341E-2,9.982949E-2],"split_indices":[5003,0,3888,5022,0,0,0],"split_type":[0,0,0,0,0,0,0],"sum_hessian":[4.9411285E2,2.4202742E2,2.5208543E2,2.4923073E2,2.8547144E0,1.1106383E0,2.4812009E2],"tree_param":{"num_deleted":"0","num_feature":"5050","num_nodes":"7","size_leaf_vector":"1"}},{"base_weights":[6.8646977E-3,-9.9819444E-2,9.713676E-1,-7.3215805E-2,9.9456114E-1,2.17927E-2,9.976572E-2],"categories":[],"categories_nodes":[],"categories_segments":[],"categories_sizes":[],"default_left":[0,0,0,0,1,0,0],"id":53,"left_children":[1,-1,3,-1,5,-1,-1],"loss_changes":[4.3577713E2,0E0,9.791718E0,0E0,3.2777405E-1,0E0,0E0],"parents":[2147483647,0,0,2,2,4,4],"right_children":[2,-1,4,-1,6,-1,-1],"split_conditions":[1E2,-9.9819444E-2,8.6E1,-7.3215805E-2,3.6241993E-2,2.17927E-2,9.976572E-2],"split_indices":[5003,0,5022,0,3888,0,0],"split_type":[0,0,0,0,0,0,0],"sum_hessian":[4.4754074E2,2.191455E2,2.2839523E2,2.6572468E0,2.2573799E2,1.1797935E0,2.245582E2],"tree_param":{"num_deleted":"0","num_feature":"5050","num_nodes":"7","size_leaf_vector":"1"}},{"base_weights":[6.723392E-3,-9.974615E-2,9.697243E-1,9.937489E-1,-7.184579E-2,1.68126E-2,9.969997E-2],"categories":[],"categories_nodes":[],"categories_segments":[],"categories_sizes":[],"default_left":[0,0,0,0,0,0,0],"id":54,"left_children":[1,-1,3,5,-1,-1,-1],"loss_changes":[3.9395145E2,0E0,9.148071E0,3.8380432E-1,0E0,0E0,0E0],"parents":[2147483647,0,0,2,2,3,3],"right_children":[2,-1,4,6,-1,-1,-1],"split_conditions":[1E2,-9.974615E-2,4.7458345E-1,1.19E2,-7.184579E-2,1.68126E-2,9.969997E-2],"split_indices":[5003,0,3888,5022,0,0,0],"split_type":[0,0,0,0,0,0,0],"sum_hessian":[4.0538223E2,1.9843016E2,2.0695207E2,2.0445383E2,2.498245E0,1.0086006E0,2.0344522E2],"tree_param":{"num_deleted":"0","num_feature":"5050","num_nodes":"7","size_leaf_vector":"1"}},{"base_weights":[6.5923687E-3,-9.967049E-2,9.680063E-1,-7.048123E-2,9.927248E-1,9.963175E-2,1.8760605E-2],"categories":[],"categories_nodes":[],"categories_segments":[],"categories_sizes":[],"default_left":[0,0,0,0,0,0,0],"id":55,"left_children":[1,-1,3,-1,5,-1,-1],"loss_changes":[3.561427E2,0E0,8.495773E0,0E0,3.517151E-1,0E0,0E0],"parents":[2147483647,0,0,2,2,4,4],"right_children":[2,-1,4,-1,6,-1,-1],"split_conditions":[1E2,-9.967049E-2,8.6E1,-7.048123E-2,1.3472553E-1,9.963175E-2,1.8760605E-2],"split_indices":[5003,0,5022,0,3888,0,0],"split_type":[0,0,0,0,0,0,0],"sum_hessian":[3.6721875E2,1.7967726E2,1.8754147E2,2.3302279E0,1.8521126E2,1.8415202E2,1.059222E0],"tree_param":{"num_deleted":"0","num_feature":"5050","num_nodes":"7","size_leaf_vector":"1"}},{"base_weights":[6.460568E-3,-9.9591725E-2,9.6615404E-1,9.918366E-1,-6.9121964E-2,2.1078348E-2,9.9558525E-2],"categories":[],"categories_nodes":[],"categories_segments":[],"categories_sizes":[],"default_left":[0,0,0,0,0,0,0],"id":56,"left_children":[1,-1,3,5,-1,-1,-1],"loss_changes":[3.2195184E2,0E0,7.963272E0,2.8431702E-1,0E0,0E0,0E0],"parents":[2147483647,0,0,2,2,3,3],"right_children":[2,-1,4,6,-1,-1,-1],"split_conditions":[1E2,-9.9591725E-2,4.7458345E-1,1.24E2,-6.9121964E-2,2.1078348E-2,9.9558525E-2],"split_indices":[5003,0,3888,5022,0,0,0],"split_type":[0,0,0,0,0,0,0],"sum_hessian":[3.3267755E2,1.6270166E2,1.6997589E2,1.6777759E2,2.19831E0,1.0747613E0,1.6670282E2],"tree_param":{"num_deleted":"0","num_feature":"5050","num_nodes":"7","size_leaf_vector":"1"}},{"base_weights":[6.271472E-3,-9.950912E-2,9.6417683E-1,-6.775528E-2,9.9067444E-1,2.3901224E-2,9.940708E-2],"categories":[],"categories_nodes":[],"categories_segments":[],"categories_sizes":[],"default_left":[0,0,0,0,1,0,0],"id":57,"left_children":[1,-1,3,-1,5,-1,-1],"loss_changes":[2.9101895E2,0E0,7.41658E0,0E0,1.5301514E-1,0E0,0E0],"parents":[2147483647,0,0,2,2,4,4],"right_children":[2,-1,4,-1,6,-1,-1],"split_conditions":[1E2,-9.950912E-2,8.6E1,-6.775528E-2,2.9942276E-2,2.3901224E-2,9.940708E-2],"split_indices":[5003,0,5022,0,2208,0,0],"split_type":[0,0,0,0,0,0,0],"sum_hessian":[3.0139395E2,1.4733548E2,1.5405847E2,2.0567498E0,1.5200172E2,1.0047752E0,1.5099695E2],"tree_param":{"num_deleted":"0","num_feature":"5050","num_nodes":"7","size_leaf_vector":"1"}},{"base_weights":[6.1466633E-3,-9.94219E-2,9.6197706E-1,9.8965526E-1,-6.6484176E-2,2.2017969E-2,9.940046E-2],"categories":[],"categories_nodes":[],"categories_segments":[],"categories_sizes":[],"default_left":[0,0,0,0,0,0,0],"id":58,"left_children":[1,-1,3,5,-1,-1,-1],"loss_changes":[2.630551E2,0E0,6.992584E0,2.4545288E-1,0E0,0E0,0E0],"parents":[2147483647,0,0,2,2,3,3],"right_children":[2,-1,4,6,-1,-1,-1],"split_conditions":[1E2,-9.94219E-2,4.7458345E-1,1.29E2,-6.6484176E-2,2.2017969E-2,9.940046E-2],"split_indices":[5003,0,3888,5022,0,0,0],"split_type":[0,0,0,0,0,0,0],"sum_hessian":[2.7311023E2,1.3342664E2,1.3968358E2,1.3773192E2,1.9516668E0,1.0642897E0,1.3666762E2],"tree_param":{"num_deleted":"0","num_feature":"5050","num_nodes":"7","size_leaf_vector":"1"}},{"base_weights":[5.9383363E-3,-9.9329226E-2,9.5969903E-1,-6.505554E-2,9.882446E-1,2.7084503E-2,9.931242E-2],"categories":[],"categories_nodes":[],"categories_segments":[],"categories_sizes":[],"default_left":[0,0,0,0,1,0,0],"id":59,"left_children":[1,-1,3,-1,5,-1,-1],"loss_changes":[2.3775854E2,0E0,6.5099487E0,0E0,1.7144012E-1,0E0,0E0],"parents":[2147483647,0,0,2,2,4,4],"right_children":[2,-1,4,-1,6,-1,-1],"split_conditions":[1E2,-9.9329226E-2,8.6E1,-6.505554E-2,3.7697833E-2,2.7084503E-2,9.931242E-2],"split_indices":[5003,0,5022,0,3888,0,0],"split_type":[0,0,0,0,0,0,0],"sum_hessian":[2.4747704E2,1.2083737E2,1.26639656E2,1.8263315E0,1.24813324E2,1.2249615E0,1.2358836E2],"tree_param":{"num_deleted":"0","num_feature":"5050","num_nodes":"7","size_leaf_vector":"1"}},{"base_weights":[5.768324E-3,-9.9230245E-2,9.572042E-1,9.871372E-1,-6.3845895E-2,2.6221057E-2,9.921869E-2],"categories":[],"categories_nodes":[],"categories_segments":[],"categories_sizes":[],"default_left":[0,0,0,0,0,0,0],"id":60,"left_children":[1,-1,3,5,-1,-1,-1],"loss_changes":[2.148881E2,0E0,6.1635895E0,1.5755463E-1,0E0,0E0,0E0],"parents":[2147483647,0,0,2,2,3,3],"right_children":[2,-1,4,6,-1,-1,-1],"split_conditions":[1E2,-9.9230245E-2,4.7458345E-1,1.38E2,-6.3845895E-2,2.6221057E-2,9.921869E-2],"split_indices":[5003,0,3888,5022,0,0,0],"split_type":[0,0,0,0,0,0,0],"sum_hessian":[2.2429295E2,1.0944282E2,1.14850136E2,1.1310968E2,1.7404555E0,1.1485692E0,1.11961105E2],"tree_param":{"num_deleted":"0","num_feature":"5050","num_nodes":"7","size_leaf_vector":"1"}},{"base_weights":[5.571136E-3,-9.912405E-2,9.545517E-1,-6.2424123E-2,9.8547286E-1,2.3986077E-2,9.911808E-2],"categories":[],"categories_nodes":[],"categories_segments":[],"categories_sizes":[],"default_left":[0,0,0,0,1,0,0],"id":61,"left_children":[1,-1,3,-1,5,-1,-1],"loss_changes":[1.942053E2,0E0,5.7494125E0,0E0,2.0290375E-1,0E0,0E0],"parents":[2147483647,0,0,2,2,4,4],"right_children":[2,-1,4,-1,6,-1,-1],"split_conditions":[1E2,-9.912405E-2,8.6E1,-6.2424123E-2,3.7697833E-2,2.3986077E-2,9.911808E-2],"split_indices":[5003,0,5022,0,3888,0,0],"split_type":[0,0,0,0,0,0,0],"sum_hessian":[2.0330057E2,9.912982E1,1.0417075E2,1.632439E0,1.02538315E2,1.1058664E0,1.0143245E2],"tree_param":{"num_deleted":"0","num_feature":"5050","num_nodes":"7","size_leaf_vector":"1"}},{"base_weights":[5.3874576E-3,-9.900969E-2,9.5167965E-1,9.8418015E-1,-6.125623E-2,2.3184486E-2,9.900894E-2],"categories":[],"categories_nodes":[],"categories_segments":[],"categories_sizes":[],"default_left":[0,0,0,0,0,0,0],"id":62,"left_children":[1,-1,3,5,-1,-1,-1],"loss_changes":[1.7550423E2,0E0,5.458473E0,1.8813324E-1,0E0,0E0,0E0],"parents":[2147483647,0,0,2,2,3,3],"right_children":[2,-1,4,6,-1,-1,-1],"split_conditions":[1E2,-9.900969E-2,4.7458345E-1,1.38E2,-6.125623E-2,2.3184486E-2,9.900894E-2],"split_indices":[5003,0,3888,5022,0,0,0],"split_type":[0,0,0,0,0,0,0],"sum_hessian":[1.8430618E2,8.979596E1,9.4510216E1,9.2949814E1,1.5604068E0,1.0379385E0,9.191187E1],"tree_param":{"num_deleted":"0","num_feature":"5050","num_nodes":"7","size_leaf_vector":"1"}},{"base_weights":[5.154558E-3,-9.8886125E-2,9.486187E-1,-5.9851255E-2,9.8224485E-1,2.1107277E-2,9.889095E-2],"categories":[],"categories_nodes":[],"categories_segments":[],"categories_sizes":[],"default_left":[0,0,0,0,1,0,0],"id":63,"left_children":[1,-1,3,-1,5,-1,-1],"loss_changes":[1.5858884E2,0E0,5.101242E0,0E0,2.2962189E-1,0E0,0E0],"parents":[2147483647,0,0,2,2,4,4],"right_children":[2,-1,4,-1,6,-1,-1],"split_conditions":[1E2,-9.8886125E-2,8.6E1,-5.9851255E-2,3.7697833E-2,2.1107277E-2,9.889095E-2],"split_indices":[5003,0,5022,0,3888,0,0],"split_type":[0,0,0,0,0,0,0],"sum_hessian":[1.6710378E2,8.1348465E1,8.575531E1,1.4668499E0,8.428846E1,1.0021325E0,8.328632E1],"tree_param":{"num_deleted":"0","num_feature":"5050","num_nodes":"7","size_leaf_vector":"1"}},{"base_weights":[4.9585467E-3,-9.8752275E-2,9.4530696E-1,9.807244E-1,-5.873213E-2,2.6987096E-2,9.8759554E-2],"categories":[],"categories_nodes":[],"categories_segments":[],"categories_sizes":[],"default_left":[0,0,0,0,0,0,0],"id":64,"left_children":[1,-1,3,5,-1,-1,-1],"loss_changes":[1.432984E2,0E0,4.855545E0,1.11694336E-1,0E0,0E0,0E0],"parents":[2147483647,0,0,2,2,3,3],"right_children":[2,-1,4,6,-1,-1,-1],"split_conditions":[1E2,-9.8752275E-2,4.7458345E-1,1.49E2,-5.873213E-2,2.6987096E-2,9.8759554E-2],"split_indices":[5003,0,3888,5022,0,0,0],"split_type":[0,0,0,0,0,0,0],"sum_hessian":[1.5154283E2,7.370328E1,7.783955E1,7.643336E1,1.4061917E0,1.1173233E0,7.531603E1],"tree_param":{"num_deleted":"0","num_feature":"5050","num_nodes":"7","size_leaf_vector":"1"}},{"base_weights":[4.6464945E-3,-9.860697E-2,9.417197E-1,-5.7388045E-2,9.7846365E-1,9.861932E-2,2.6352098E-2],"categories":[],"categories_nodes":[],"categories_segments":[],"categories_sizes":[],"default_left":[0,0,0,0,0,0,0],"id":65,"left_children":[1,-1,3,-1,5,-1,-1],"loss_changes":[1.2945631E2,0E0,4.5521812E0,0E0,1.2879181E-1,0E0,0E0],"parents":[2147483647,0,0,2,2,4,4],"right_children":[2,-1,4,-1,6,-1,-1],"split_conditions":[1E2,-9.860697E-2,8.6E1,-5.7388045E-2,1.173561E-1,9.861932E-2,2.6352098E-2],"split_indices":[5003,0,5022,0,3888,0,0],"split_type":[0,0,0,0,0,0,0],"sum_hessian":[1.3744395E2,6.6784294E1,7.065966E1,1.3264939E0,6.933317E1,6.821625E1,1.1169192E0],"tree_param":{"num_deleted":"0","num_feature":"5050","num_nodes":"7","size_leaf_vector":"1"}},{"base_weights":[4.4431486E-3,-9.8448984E-2,9.378356E-1,9.7661567E-1,-5.6331128E-2,2.3875633E-2,9.846726E-2],"categories":[],"categories_nodes":[],"categories_segments":[],"categories_sizes":[],"default_left":[0,0,0,0,0,0,0],"id":66,"left_children":[1,-1,3,5,-1,-1,-1],"loss_changes":[1.169535E2,0E0,4.3444977E0,1.4479446E-1,0E0,0E0,0E0],"parents":[2147483647,0,0,2,2,3,3],"right_children":[2,-1,4,6,-1,-1,-1],"split_conditions":[1E2,-9.8448984E-2,4.7458345E-1,1.49E2,-5.6331128E-2,2.3875633E-2,9.846726E-2],"split_indices":[5003,0,3888,5022,0,0,0],"split_type":[0,0,0,0,0,0,0],"sum_hessian":[1.2470136E2,6.052264E1,6.417872E1,6.2903122E1,1.2755979E0,1.0103245E0,6.18928E1],"tree_param":{"num_deleted":"0","num_feature":"5050","num_nodes":"7","size_leaf_vector":"1"}},{"base_weights":[4.151838E-3,-9.8276995E-2,9.336995E-1,-5.5010762E-2,9.7395587E-1,9.830076E-2,2.3276536E-2],"categories":[],"categories_nodes":[],"categories_segments":[],"categories_sizes":[],"default_left":[0,0,0,0,0,0,0],"id":67,"left_children":[1,-1,3,-1,5,-1,-1],"loss_changes":[1.0564235E2,0E0,4.077873E0,0E0,1.6094208E-1,0E0,0E0],"parents":[2147483647,0,0,2,2,4,4],"right_children":[2,-1,4,-1,6,-1,-1],"split_conditions":[1E2,-9.8276995E-2,8.6E1,-5.5010762E-2,1.173561E-1,9.830076E-2,2.3276536E-2],"split_indices":[5003,0,5022,0,3888,0,0],"split_type":[0,0,0,0,0,0,0],"sum_hessian":[1.1315499E2,5.485594E1,5.829905E1,1.2053682E0,5.709368E1,5.6082523E1,1.0111562E0],"tree_param":{"num_deleted":"0","num_feature":"5050","num_nodes":"7","size_leaf_vector":"1"}},{"base_weights":[3.8321374E-3,-9.808959E-2,9.2920774E-1,9.7178E-1,-5.401924E-2,2.684378E-2,9.811435E-2],"categories":[],"categories_nodes":[],"categories_segments":[],"categories_sizes":[],"default_left":[0,0,0,0,0,0,0],"id":68,"left_children":[1,-1,3,5,-1,-1,-1],"loss_changes":[9.541177E1,0E0,3.9015198E0,8.444977E-2,0E0,0E0,0E0],"parents":[2147483647,0,0,2,2,3,3],"right_children":[2,-1,4,6,-1,-1,-1],"split_conditions":[1E2,-9.808959E-2,4.7458345E-1,1.61E2,-5.401924E-2,2.684378E-2,9.811435E-2],"split_indices":[5003,0,3888,5022,0,0,0],"split_type":[0,0,0,0,0,0,0],"sum_hessian":[1.0270483E2,4.9727676E1,5.2977146E1,5.18146E1,1.1625445E0,1.0705215E0,5.074408E1],"tree_param":{"num_deleted":"0","num_feature":"5050","num_nodes":"7","size_leaf_vector":"1"}},{"base_weights":[3.5284008E-3,-9.788527E-2,9.2438555E-1,-5.2762836E-2,9.686509E-1,2.3763841E-2,9.791789E-2],"categories":[],"categories_nodes":[],"categories_segments":[],"categories_sizes":[],"default_left":[0,0,0,0,1,0,0],"id":69,"left_children":[1,-1,3,-1,5,-1,-1],"loss_changes":[8.6165344E1,0E0,3.6709213E0,0E0,1.3718796E-1,0E0,0E0],"parents":[2147483647,0,0,2,2,4,4],"right_children":[2,-1,4,-1,6,-1,-1],"split_conditions":[1E2,-9.788527E-2,8.6E1,-5.2762836E-2,3.933969E-2,2.3763841E-2,9.791789E-2],"split_indices":[5003,0,5022,0,3888,0,0],"split_type":[0,0,0,0,0,0,0],"sum_hessian":[9.324876E1,4.508673E1,4.816203E1,1.1017634E0,4.706027E1,1.0028043E0,4.605746E1],"tree_param":{"num_deleted":"0","num_feature":"5050","num_nodes":"7","size_leaf_vector":"1"}},{"base_weights":[3.21682E-3,-9.766247E-2,9.191861E-1,9.660341E-1,-5.182284E-2,9.7699426E-2,2.4943445E-2],"categories":[],"categories_nodes":[],"categories_segments":[],"categories_sizes":[],"default_left":[0,0,0,0,0,0,0],"id":70,"left_children":[1,-1,3,5,-1,-1,-1],"loss_changes":[7.7805756E1,0E0,3.5177345E0,9.983444E-2,0E0,0E0,0E0],"parents":[2147483647,0,0,2,2,3,3],"right_children":[2,-1,4,6,-1,-1,-1],"split_conditions":[1E2,-9.766247E-2,4.7458345E-1,3.78E2,-5.182284E-2,9.7699426E-2,2.4943445E-2],"split_indices":[5003,0,3888,5044,0,0,0],"split_type":[0,0,0,0,0,0,0],"sum_hessian":[8.469097E1,4.0886818E1,4.380415E1,4.273914E1,1.0650107E0,4.1737404E1,1.0017335E0],"tree_param":{"num_deleted":"0","num_feature":"5050","num_nodes":"7","size_leaf_vector":"1"}},{"base_weights":[2.8406288E-3,-9.741946E-2,9.1361886E-1,-5.0620448E-2,9.6237695E-1,2.6211558E-2,9.7457364E-2],"categories":[],"categories_nodes":[],"categories_segments":[],"categories_sizes":[],"default_left":[0,0,0,0,1,0,0],"id":71,"left_children":[1,-1,3,-1,5,-1,-1],"loss_changes":[7.024559E1,0E0,3.315361E0,0E0,8.483887E-2,0E0,0E0],"parents":[2147483647,0,0,2,2,4,4],"right_children":[2,-1,4,-1,6,-1,-1],"split_conditions":[1E2,-9.741946E-2,8.6E1,-5.0620448E-2,3.99767E-2,2.6211558E-2,9.7457364E-2],"split_indices":[5003,0,5022,0,3888,0,0],"split_type":[0,0,0,0,0,0,0],"sum_hessian":[7.693961E1,3.708603E1,3.9853584E1,1.0116825E0,3.8841904E1,1.0499634E0,3.779194E1],"tree_param":{"num_deleted":"0","num_feature":"5050","num_nodes":"7","size_leaf_vector":"1"}},{"base_weights":[2.567279E-3,-9.7154506E-2,9.075987E-1,-4.365673E-2,9.607502E-2],"categories":[],"categories_nodes":[],"categories_segments":[],"categories_sizes":[],"default_left":[0,0,0,0,0],"id":72,"left_children":[1,-1,3,-1,-1],"loss_changes":[6.341786E1,0E0,3.0834618E0,0E0,0E0],"parents":[2147483647,0,0,2,2],"right_children":[2,-1,4,-1,-1],"split_conditions":[1E2,-9.7154506E-2,1.08E2,-4.365673E-2,9.607502E-2],"split_indices":[5003,0,5022,0,0],"split_type":[0,0,0,0,0],"sum_hessian":[6.9934586E1,3.364643E1,3.628815E1,1.1059426E0,3.518221E1],"tree_param":{"num_deleted":"0","num_feature":"5050","num_nodes":"5","size_leaf_vector":"1"}},{"base_weights":[1.877679E-3,-9.640554E-2,9.0521085E-1,-4.167796E-2,9.602374E-2],"categories":[],"categories_nodes":[],"categories_segments":[],"categories_sizes":[],"default_left":[1,0,0,0,0],"id":73,"left_children":[1,-1,3,-1,-1],"loss_changes":[5.7243927E1,0E0,2.866228E0,0E0,0E0],"parents":[2147483647,0,0,2,2],"right_children":[2,-1,4,-1,-1],"split_conditions":[3.3765323E-2,-9.640554E-2,1.08E2,-4.167796E-2,9.602374E-2],"split_indices":[3888,0,5022,0,0],"split_type":[0,0,0,0,0],"sum_hessian":[6.360449E1,3.0704733E1,3.2899754E1,1.0519894E0,3.1847767E1],"tree_param":{"num_deleted":"0","num_feature":"5050","num_nodes":"5","size_leaf_vector":"1"}},{"base_weights":[1.1882723E-3,-9.6560866E-2,8.9674336E-1,-3.440048E-2,9.548514E-2],"categories":[],"categories_nodes":[],"categories_segments":[],"categories_sizes":[],"default_left":[0,0,0,0,0],"id":74,"left_children":[1,-1,3,-1,-1],"loss_changes":[5.1847485E1,0E0,2.569687E0,0E0,0E0],"parents":[2147483647,0,0,2,2],"right_children":[2,-1,4,-1,-1],"split_conditions":[1E2,-9.6560866E-2,1.19E2,-3.440048E-2,9.548514E-2],"split_indices":[5003,0,5022,0,0],"split_type":[0,0,0,0,0],"sum_hessian":[5.7882427E1,2.779649E1,3.0085938E1,1.1258656E0,2.8960073E1],"tree_param":{"num_deleted":"0","num_feature":"5050","num_nodes":"5","size_leaf_vector":"1"}},{"base_weights":[4.1492368E-4,-9.5668845E-2,8.940362E-1,-3.253817E-2,9.548902E-2],"categories":[],"categories_nodes":[],"categories_segments":[],"categories_sizes":[],"default_left":[1,0,0,0,0],"id":75,"left_children":[1,-1,3,-1,-1],"loss_changes":[4.6778725E1,0E0,2.4095974E0,0E0,0E0],"parents":[2147483647,0,0,2,2],"right_children":[2,-1,4,-1,-1],"split_conditions":[3.3765323E-2,-9.5668845E-2,1.19E2,-3.253817E-2,9.548902E-2],"split_indices":[3888,0,5022,0,0],"split_type":[0,0,0,0,0],"sum_hessian":[5.2693504E1,2.5408949E1,2.7284555E1,1.0902729E0,2.6194283E1],"tree_param":{"num_deleted":"0","num_feature":"5050","num_nodes":"5","size_leaf_vector":"1"}},{"base_weights":[-1.7379888E-4,-9.5860876E-2,8.841738E-1,-2.8727103E-2,9.475021E-2],"categories":[],"categories_nodes":[],"categories_segments":[],"categories_sizes":[],"default_left":[0,0,0,0,0],"id":76,"left_children":[1,-1,3,-1,-1],"loss_changes":[4.2388508E1,0E0,2.2018108E0,0E0,0E0],"parents":[2147483647,0,0,2,2],"right_children":[2,-1,4,-1,-1],"split_conditions":[1E2,-9.5860876E-2,1.24E2,-2.8727103E-2,9.475021E-2],"split_indices":[5003,0,5022,0,0],"split_type":[0,0,0,0,0],"sum_hessian":[4.801066E1,2.2999918E1,2.5010738E1,1.1013719E0,2.3909367E1],"tree_param":{"num_deleted":"0","num_feature":"5050","num_nodes":"5","size_leaf_vector":"1"}},{"base_weights":[-7.6609914E-4,-9.480297E-2,8.8129646E-1,9.4791226E-2,-2.8943395E-2],"categories":[],"categories_nodes":[],"categories_segments":[],"categories_sizes":[],"default_left":[1,0,0,0,0],"id":77,"left_children":[1,-1,3,-1,-1],"loss_changes":[3.8238235E1,0E0,2.1225605E0,0E0,0E0],"parents":[2147483647,0,0,2,2],"right_children":[2,-1,4,-1,-1],"split_conditions":[3.3765323E-2,-9.480297E-2,1.7912E4,9.4791226E-2,-2.8943395E-2],"split_indices":[3888,0,5044,0,0],"split_type":[0,0,0,0,0],"sum_hessian":[4.3764446E1,2.1066235E1,2.2698212E1,2.1656271E1,1.0419409E0],"tree_param":{"num_deleted":"0","num_feature":"5050","num_nodes":"5","size_leaf_vector":"1"}},{"base_weights":[-1.5828807E-3,-9.503878E-2,8.698816E-1,-2.6313264E-2,9.390788E-2],"categories":[],"categories_nodes":[],"categories_segments":[],"categories_sizes":[],"default_left":[0,0,1,0,0],"id":78,"left_children":[1,-1,3,-1,-1],"loss_changes":[3.4654556E1,0E0,1.9599457E0,0E0,0E0],"parents":[2147483647,0,0,2,2],"right_children":[2,-1,4,-1,-1],"split_conditions":[1E2,-9.503878E-2,2E0,-2.6313264E-2,9.390788E-2],"split_indices":[5003,0,5049,0,0],"split_type":[0,0,0,0,0],"sum_hessian":[3.99117E1,1.9064598E1,2.0847101E1,1.0386066E0,1.9808495E1],"tree_param":{"num_deleted":"0","num_feature":"5050","num_nodes":"5","size_leaf_vector":"1"}},{"base_weights":[-1.9536852E-3,-9.378909E-2,8.670165E-1,-2.2497451E-2,9.371095E-2],"categories":[],"categories_nodes":[],"categories_segments":[],"categories_sizes":[],"default_left":[1,0,0,0,0],"id":79,"left_children":[1,-1,3,-1,-1],"loss_changes":[3.1258022E1,0E0,1.7363586E0,0E0,0E0],"parents":[2147483647,0,0,2,2],"right_children":[2,-1,4,-1,-1],"split_conditions":[3.3765323E-2,-9.378909E-2,1.38E2,-2.2497451E-2,9.371095E-2],"split_indices":[3888,0,5022,0,0],"split_type":[0,0,0,0,0],"sum_hessian":[3.6433662E1,1.750275E1,1.893091E1,1.0085704E0,1.792234E1],"tree_param":{"num_deleted":"0","num_feature":"5050","num_nodes":"5","size_leaf_vector":"1"}},{"base_weights":[-2.7974069E-3,-9.4080314E-2,8.539577E-1,-1.8691627E-2,9.356724E-2],"categories":[],"categories_nodes":[],"categories_segments":[],"categories_sizes":[],"default_left":[0,0,0,0,0],"id":80,"left_children":[1,-1,3,-1,-1],"loss_changes":[2.8351686E1,0E0,1.7432823E0,0E0,0E0],"parents":[2147483647,0,0,2,2],"right_children":[2,-1,4,-1,-1],"split_conditions":[1E2,-9.4080314E-2,1.61E2,-1.8691627E-2,9.356724E-2],"split_indices":[5003,0,5022,0,0],"split_type":[0,0,0,0,0],"sum_hessian":[3.3279335E1,1.5839543E1,1.743979E1,1.1757512E0,1.626404E1],"tree_param":{"num_deleted":"0","num_feature":"5050","num_nodes":"5","size_leaf_vector":"1"}},{"base_weights":[-3.3440057E-3,-9.3452774E-2,8.437559E-1,-1.6760204E-2,9.263738E-2],"categories":[],"categories_nodes":[],"categories_segments":[],"categories_sizes":[],"default_left":[1,0,1,0,0],"id":81,"left_children":[1,-1,3,-1,-1],"loss_changes":[2.5563744E1,0E0,1.5734081E0,0E0,0E0],"parents":[2147483647,0,0,2,2],"right_children":[2,-1,4,-1,-1],"split_conditions":[3.0268613E-2,-9.3452774E-2,3E0,-1.6760204E-2,9.263738E-2],"split_indices":[3888,0,5049,0,0],"split_type":[0,0,0,0,0],"sum_hessian":[3.0408535E1,1.4436189E1,1.5972345E1,1.1285601E0,1.4843785E1],"tree_param":{"num_deleted":"0","num_feature":"5050","num_nodes":"5","size_leaf_vector":"1"}},{"base_weights":[-3.8772987E-3,-9.296721E-2,8.366154E-1,-1.5644023E-2,9.2617474E-2],"categories":[],"categories_nodes":[],"categories_segments":[],"categories_sizes":[],"default_left":[0,0,0,0,0],"id":82,"left_children":[1,-1,3,-1,-1],"loss_changes":[2.320363E1,0E0,1.535203E0,0E0,0E0],"parents":[2147483647,0,0,2,2],"right_children":[2,-1,4,-1,-1],"split_conditions":[1E2,-9.296721E-2,1.71E2,-1.5644023E-2,9.2617474E-2],"split_indices":[5003,0,5022,0,0],"split_type":[0,0,0,0,0],"sum_hessian":[2.7820417E1,1.3187932E1,1.4632486E1,1.148695E0,1.3483791E1],"tree_param":{"num_deleted":"0","num_feature":"5050","num_nodes":"5","size_leaf_vector":"1"}},{"base_weights":[-4.3502045E-3,-9.078722E-2,8.387564E-1,-9.6045695E-3,9.177615E-2],"categories":[],"categories_nodes":[],"categories_segments":[],"categories_sizes":[],"default_left":[1,0,1,0,0],"id":83,"left_children":[1,-1,3,-1,-1],"loss_changes":[2.0917845E1,0E0,1.1374264E0,0E0,0E0],"parents":[2147483647,0,0,2,2],"right_children":[2,-1,4,-1,-1],"split_conditions":[3.6241993E-2,-9.078722E-2,2E0,-9.6045695E-3,9.177615E-2],"split_indices":[3888,0,5044,0,0],"split_type":[0,0,0,0,0],"sum_hessian":[2.5460072E1,1.2252627E1,1.3207444E1,1.0124357E0,1.2195008E1],"tree_param":{"num_deleted":"0","num_feature":"5050","num_nodes":"5","size_leaf_vector":"1"}},{"base_weights":[-4.4592773E-3,-9.1690056E-2,8.1759274E-1,-1.4342141E-2,9.1283575E-2],"categories":[],"categories_nodes":[],"categories_segments":[],"categories_sizes":[],"default_left":[0,0,0,0,0],"id":84,"left_children":[1,-1,3,-1,-1],"loss_changes":[1.9019318E1,0E0,1.3520975E0,0E0,0E0],"parents":[2147483647,0,0,2,2],"right_children":[2,-1,4,-1,-1],"split_conditions":[1E2,-9.1690056E-2,1.71E2,-1.4342141E-2,9.1283575E-2],"split_indices":[5003,0,5022,0,0],"split_type":[0,0,0,0,0],"sum_hessian":[2.3357145E1,1.1015286E1,1.234186E1,1.0672563E0,1.1274604E1],"tree_param":{"num_deleted":"0","num_feature":"5050","num_nodes":"5","size_leaf_vector":"1"}},{"base_weights":[-5.229967E-3,-9.085001E-2,8.0569243E-1,-1.1845735E-2,8.992682E-2],"categories":[],"categories_nodes":[],"categories_segments":[],"categories_sizes":[],"default_left":[1,0,1,0,0],"id":85,"left_children":[1,-1,3,-1,-1],"loss_changes":[1.714419E1,0E0,1.173377E0,0E0,0E0],"parents":[2147483647,0,0,2,2],"right_children":[2,-1,4,-1,-1],"split_conditions":[3.0268613E-2,-9.085001E-2,2E0,-1.1845735E-2,8.992682E-2],"split_indices":[3888,0,5044,0,0],"split_type":[0,0,0,0,0],"sum_hessian":[2.140631E1,1.0069627E1,1.1336683E1,1.0179135E0,1.0318769E1],"tree_param":{"num_deleted":"0","num_feature":"5050","num_nodes":"5","size_leaf_vector":"1"}},{"base_weights":[-5.783491E-3,-9.0230174E-2,7.9659545E-1,-1.184436E-2,8.972355E-2],"categories":[],"categories_nodes":[],"categories_segments":[],"categories_sizes":[],"default_left":[0,0,0,0,0],"id":86,"left_children":[1,-1,3,-1,-1],"loss_changes":[1.5577426E1,0E0,1.1589718E0,0E0,0E0],"parents":[2147483647,0,0,2,2],"right_children":[2,-1,4,-1,-1],"split_conditions":[1E2,-9.0230174E-2,1.79E2,-1.184436E-2,8.972355E-2],"split_indices":[5003,0,5022,0,0],"split_type":[0,0,0,0,0],"sum_hessian":[1.9655746E1,9.224474E0,1.0431272E1,1.0160688E0,9.415203E0],"tree_param":{"num_deleted":"0","num_feature":"5050","num_nodes":"5","size_leaf_vector":"1"}},{"base_weights":[-6.312874E-3,-8.940378E-2,7.8194064E-1,-1.1262717E-2,8.879647E-2],"categories":[],"categories_nodes":[],"categories_segments":[],"categories_sizes":[],"default_left":[0,0,0,0,0],"id":87,"left_children":[1,-1,3,-1,-1],"loss_changes":[1.4033131E1,0E0,1.1078978E0,0E0,0E0],"parents":[2147483647,0,0,2,2],"right_children":[2,-1,4,-1,-1],"split_conditions":[1E2,-8.940378E-2,1.79E2,-1.1262717E-2,8.879647E-2],"split_indices":[5003,0,5022,0,0],"split_type":[0,0,0,0,0],"sum_hessian":[1.805538E1,8.428767E0,9.626613E0,1.0134491E0,8.613163E0],"tree_param":{"num_deleted":"0","num_feature":"5050","num_nodes":"5","size_leaf_vector":"1"}},{"base_weights":[-6.785158E-3,-8.844688E-2,7.749154E-1,-4.0356982E-3,8.825787E-2],"categories":[],"categories_nodes":[],"categories_segments":[],"categories_sizes":[],"default_left":[1,0,1,0,0],"id":88,"left_children":[1,-1,3,-1,-1],"loss_changes":[1.2766008E1,0E0,8.998747E-1,0E0,0E0],"parents":[2147483647,0,0,2,2],"right_children":[2,-1,4,-1,-1],"split_conditions":[3.0268613E-2,-8.844688E-2,5E0,-4.0356982E-3,8.825787E-2],"split_indices":[3888,0,5049,0,0],"split_type":[0,0,0,0,0],"sum_hessian":[1.6608034E1,7.7617598E0,8.846274E0,1.1048721E0,7.7414017E0],"tree_param":{"num_deleted":"0","num_feature":"5050","num_nodes":"5","size_leaf_vector":"1"}},{"base_weights":[-6.839673E-3,-8.594518E-2,7.734122E-1,-2.0851342E-4,8.724912E-2],"categories":[],"categories_nodes":[],"categories_segments":[],"categories_sizes":[],"default_left":[1,0,1,0,0],"id":89,"left_children":[1,-1,3,-1,-1],"loss_changes":[1.15093155E1,0E0,6.962805E-1,0E0,0E0],"parents":[2147483647,0,0,2,2],"right_children":[2,-1,4,-1,-1],"split_conditions":[3.6241993E-2,-8.594518E-2,5E0,-2.0851342E-4,8.724912E-2],"split_indices":[3888,0,5049,0,0],"split_type":[0,0,0,0,0],"sum_hessian":[1.5301495E1,7.2632017E0,8.038293E0,1.0215452E0,7.0167475E0],"tree_param":{"num_deleted":"0","num_feature":"5050","num_nodes":"5","size_leaf_vector":"1"}},{"base_weights":[-6.395781E-3,-8.674187E-2,7.493201E-1,-3.9955596E-3,8.616696E-2],"categories":[],"categories_nodes":[],"categories_segments":[],"categories_sizes":[],"default_left":[0,0,0,0,0],"id":90,"left_children":[1,-1,3,-1,-1],"loss_changes":[1.0498544E1,0E0,7.967882E-1,0E0,0E0],"parents":[2147483647,0,0,2,2],"right_children":[2,-1,4,-1,-1],"split_conditions":[1E2,-8.674187E-2,2.23E2,-3.9955596E-3,8.616696E-2],"split_indices":[5003,0,5022,0,0],"split_type":[0,0,0,0,0],"sum_hessian":[1.4135609E1,6.538348E0,7.5972605E0,1.0269703E0,6.57029E0],"tree_param":{"num_deleted":"0","num_feature":"5050","num_nodes":"5","size_leaf_vector":"1"}},{"base_weights":[-6.6558192E-3,-8.553954E-2,7.3503596E-1,-3.2265694E-3,8.531521E-2],"categories":[],"categories_nodes":[],"categories_segments":[],"categories_sizes":[],"default_left":[1,0,1,0,0],"id":91,"left_children":[1,-1,3,-1,-1],"loss_changes":[9.474761E0,0E0,7.5592184E-1,0E0,0E0],"parents":[2147483647,0,0,2,2],"right_children":[2,-1,4,-1,-1],"split_conditions":[3.0268613E-2,-8.553954E-2,5E0,-3.2265694E-3,8.531521E-2],"split_indices":[3888,0,5049,0,0],"split_type":[0,0,0,0,0],"sum_hessian":[1.3052376E1,6.0154347E0,7.0369415E0,1.0356995E0,6.0012417E0],"tree_param":{"num_deleted":"0","num_feature":"5050","num_nodes":"5","size_leaf_vector":"1"}},{"base_weights":[-6.6933413E-3,-8.4706746E-2,7.2301847E-1,-1.298928E-3,8.394265E-2],"categories":[],"categories_nodes":[],"categories_segments":[],"categories_sizes":[],"default_left":[0,0,0,0,0],"id":92,"left_children":[1,-1,3,-1,-1],"loss_changes":[8.629072E0,0E0,6.5661716E-1,0E0,0E0],"parents":[2147483647,0,0,2,2],"right_children":[2,-1,4,-1,-1],"split_conditions":[1E2,-8.4706746E-2,2.4E2,-1.298928E-3,8.394265E-2],"split_indices":[5003,0,5022,0,0],"split_type":[0,0,0,0,0],"sum_hessian":[1.207277E1,5.536186E0,6.5365844E0,1.0139767E0,5.522608E0],"tree_param":{"num_deleted":"0","num_feature":"5050","num_nodes":"5","size_leaf_vector":"1"}},{"base_weights":[-6.3262945E-3,-8.338405E-2,7.0844924E-1,-6.248136E-4,8.295999E-2],"categories":[],"categories_nodes":[],"categories_segments":[],"categories_sizes":[],"default_left":[1,0,1,0,0],"id":93,"left_children":[1,-1,3,-1,-1],"loss_changes":[7.799045E0,0E0,6.181648E-1,0E0,0E0],"parents":[2147483647,0,0,2,2],"right_children":[2,-1,4,-1,-1],"split_conditions":[3.0268613E-2,-8.338405E-2,3E0,-6.248136E-4,8.295999E-2],"split_indices":[3888,0,5047,0,0],"split_type":[0,0,0,0,0],"sum_hessian":[1.1186765E1,5.1073155E0,6.0794487E0,1.018644E0,5.060805E0],"tree_param":{"num_deleted":"0","num_feature":"5050","num_nodes":"5","size_leaf_vector":"1"}},{"base_weights":[-6.8993345E-3,-8.249201E-2,6.9525474E-1,9.876074E-4,8.1491806E-2],"categories":[],"categories_nodes":[],"categories_segments":[],"categories_sizes":[],"default_left":[0,0,0,0,0],"id":94,"left_children":[1,-1,3,-1,-1],"loss_changes":[7.105348E0,0E0,5.383365E-1,0E0,0E0],"parents":[2147483647,0,0,2,2],"right_children":[2,-1,4,-1,-1],"split_conditions":[1E2,-8.249201E-2,2.57E2,9.876074E-4,8.1491806E-2],"split_indices":[5003,0,5022,0,0],"split_type":[0,0,0,0,0],"sum_hessian":[1.0372014E1,4.7099752E0,5.6620383E0,1.0025287E0,4.6595097E0],"tree_param":{"num_deleted":"0","num_feature":"5050","num_nodes":"5","size_leaf_vector":"1"}},{"base_weights":[-6.47988E-3,-8.105491E-2,6.8024373E-1,1.9645814E-3,8.059433E-2],"categories":[],"categories_nodes":[],"categories_segments":[],"categories_sizes":[],"default_left":[1,0,1,0,0],"id":95,"left_children":[1,-1,3,-1,-1],"loss_changes":[6.426856E0,0E0,5.0587153E-1,0E0,0E0],"parents":[2147483647,0,0,2,2],"right_children":[2,-1,4,-1,-1],"split_conditions":[3.0268613E-2,-8.105491E-2,4E0,1.9645814E-3,8.059433E-2],"split_indices":[3888,0,5047,0,0],"split_type":[0,0,0,0,0],"sum_hessian":[9.640654E0,4.357842E0,5.282812E0,1.0293721E0,4.2534404E0],"tree_param":{"num_deleted":"0","num_feature":"5050","num_nodes":"5","size_leaf_vector":"1"}},{"base_weights":[-6.355167E-3,-8.011194E-2,6.6667694E-1,3.3352196E-3,7.9193324E-2],"categories":[],"categories_nodes":[],"categories_segments":[],"categories_sizes":[],"default_left":[0,0,0,0,0],"id":96,"left_children":[1,-1,3,-1,-1],"loss_changes":[5.868524E0,0E0,4.4524813E-1,0E0,0E0],"parents":[2147483647,0,0,2,2],"right_children":[2,-1,4,-1,-1],"split_conditions":[1E2,-8.011194E-2,2.85E2,3.3352196E-3,7.9193324E-2],"split_indices":[5003,0,5022,0,0],"split_type":[0,0,0,0,0],"sum_hessian":[8.972738E0,4.027025E0,4.9457126E0,1.0257181E0,3.9199944E0],"tree_param":{"num_deleted":"0","num_feature":"5050","num_nodes":"5","size_leaf_vector":"1"}},{"base_weights":[-5.4840487E-3,-7.710657E-2,6.6521764E-1,8.423755E-3,7.752349E-2],"categories":[],"categories_nodes":[],"categories_segments":[],"categories_sizes":[],"default_left":[1,0,1,0,0],"id":97,"left_children":[1,-1,3,-1,-1],"loss_changes":[5.32412E0,0E0,2.8824162E-1,0E0,0E0],"parents":[2147483647,0,0,2,2],"right_children":[2,-1,4,-1,-1],"split_conditions":[3.6241993E-2,-7.710657E-2,6E0,8.423755E-3,7.752349E-2],"split_indices":[3888,0,5044,0,0],"split_type":[0,0,0,0,0],"sum_hessian":[8.369834E0,3.8385863E0,4.531247E0,1.0025654E0,3.528682E0],"tree_param":{"num_deleted":"0","num_feature":"5050","num_nodes":"5","size_leaf_vector":"1"}},{"base_weights":[-4.0574307E-3,-7.759746E-2,6.383204E-1,4.3360125E-3,7.654147E-2],"categories":[],"categories_nodes":[],"categories_segments":[],"categories_sizes":[],"default_left":[0,0,0,0,0],"id":98,"left_children":[1,-1,3,-1,-1],"loss_changes":[4.8749595E0,0E0,3.728199E-1,0E0,0E0],"parents":[2147483647,0,0,2,2],"right_children":[2,-1,4,-1,-1],"split_conditions":[1E2,-7.759746E-2,2.96E2,4.3360125E-3,7.654147E-2],"split_indices":[5003,0,5022,0,0],"split_type":[0,0,0,0,0],"sum_hessian":[7.832368E0,3.4630277E0,4.3693404E0,1.0051492E0,3.364191E0],"tree_param":{"num_deleted":"0","num_feature":"5050","num_nodes":"5","size_leaf_vector":"1"}},{"base_weights":[-4.3065017E-3,-7.598012E-2,6.235716E-1,5.150351E-3,7.5189166E-2],"categories":[],"categories_nodes":[],"categories_segments":[],"categories_sizes":[],"default_left":[1,0,1,0,0],"id":99,"left_children":[1,-1,3,-1,-1],"loss_changes":[4.420978E0,0E0,3.3518553E-1,0E0,0E0],"parents":[2147483647,0,0,2,2],"right_children":[2,-1,4,-1,-1],"split_conditions":[3.0268613E-2,-7.598012E-2,7E0,5.150351E-3,7.5189166E-2],"split_indices":[3888,0,5047,0,0],"split_type":[0,0,0,0,0],"sum_hessian":[7.321107E0,3.2275028E0,4.093604E0,1.0067488E0,3.0868552E0],"tree_param":{"num_deleted":"0","num_feature":"5050","num_nodes":"5","size_leaf_vector":"1"}},{"base_weights":[-2.8601547E-3,-7.49595E-2,6.092089E-1,6.703896E-3,7.347083E-2],"categories":[],"categories_nodes":[],"categories_segments":[],"categories_sizes":[],"default_left":[0,0,0,0,0],"id":100,"left_children":[1,-1,3,-1,-1],"loss_changes":[4.053319E0,0E0,2.8253376E-1,0E0,0E0],"parents":[2147483647,0,0,2,2],"right_children":[2,-1,4,-1,-1],"split_conditions":[1E2,-7.49595E-2,3.24E2,6.703896E-3,7.347083E-2],"split_indices":[5003,0,5022,0,0],"split_type":[0,0,0,0,0],"sum_hessian":[6.869234E0,2.9930143E0,3.8762197E0,1.016973E0,2.8592467E0],"tree_param":{"num_deleted":"0","num_feature":"5050","num_nodes":"5","size_leaf_vector":"1"}},{"base_weights":[-2.0890932E-3,-7.3263526E-2,5.9506285E-1,6.8899444E-3,7.231188E-2],"categories":[],"categories_nodes":[],"categories_segments":[],"categories_sizes":[],"default_left":[1,0,1,0,0],"id":101,"left_children":[1,-1,3,-1,-1],"loss_changes":[3.686685E0,0E0,2.636162E-1,0E0,0E0],"parents":[2147483647,0,0,2,2],"right_children":[2,-1,4,-1,-1],"split_conditions":[3.0268613E-2,-7.3263526E-2,9E0,6.8899444E-3,7.231188E-2],"split_indices":[3888,0,5047,0,0],"split_type":[0,0,0,0,0],"sum_hessian":[6.451559E0,2.7996411E0,3.6519182E0,1.0158751E0,2.636043E0],"tree_param":{"num_deleted":"0","num_feature":"5050","num_nodes":"5","size_leaf_vector":"1"}},{"base_weights":[-1.7258317E-3,-7.223831E-2,5.799205E-1,7.823331E-3,7.0377134E-2],"categories":[],"categories_nodes":[],"categories_segments":[],"categories_sizes":[],"default_left":[0,0,0,0,0],"id":102,"left_children":[1,-1,3,-1,-1],"loss_changes":[3.3812704E0,0E0,2.2240186E-1,0E0,0E0],"parents":[2147483647,0,0,2,2],"right_children":[2,-1,4,-1,-1],"split_conditions":[1E2,-7.223831E-2,3.44E2,7.823331E-3,7.0377134E-2],"split_indices":[5003,0,5022,0,0],"split_type":[0,0,0,0,0],"sum_hessian":[6.06721E0,2.6017232E0,3.4654868E0,1.0091914E0,2.4562953E0],"tree_param":{"num_deleted":"0","num_feature":"5050","num_nodes":"5","size_leaf_vector":"1"}},{"base_weights":[-4.955705E-4,-6.268982E-2,6.382242E-2],"categories":[],"categories_nodes":[],"categories_segments":[],"categories_sizes":[],"default_left":[1,0,0],"id":103,"left_children":[1,-1,-1],"loss_changes":[3.0894654E0,0E0,0E0],"parents":[2147483647,0,0],"right_children":[2,-1,-1],"split_conditions":[4E0,-6.268982E-2,6.382242E-2],"split_indices":[5049,0,0],"split_type":[0,0,0],"sum_hessian":[5.721801E0,2.8980982E0,2.8237026E0],"tree_param":{"num_deleted":"0","num_feature":"5050","num_nodes":"3","size_leaf_vector":"1"}},{"base_weights":[1.2820774E-4,-6.806465E-2,5.7167757E-1,1.3830137E-2,6.693738E-2],"categories":[],"categories_nodes":[],"categories_segments":[],"categories_sizes":[],"default_left":[1,0,1,0,0],"id":104,"left_children":[1,-1,3,-1,-1],"loss_changes":[2.8898644E0,0E0,7.836199E-2,0E0,0E0],"parents":[2147483647,0,0,2,2],"right_children":[2,-1,4,-1,-1],"split_conditions":[3.6241993E-2,-6.806465E-2,1.5E1,1.3830137E-2,6.693738E-2],"split_indices":[3888,0,5047,0,0],"split_type":[0,0,0,0,0],"sum_hessian":[5.4270816E0,2.389755E0,3.0373266E0,1.0031271E0,2.0341995E0],"tree_param":{"num_deleted":"0","num_feature":"5050","num_nodes":"5","size_leaf_vector":"1"}},{"base_weights":[2.1934328E-3,-6.831815E-2,5.4447913E-1,1.0757006E-2,6.61137E-2],"categories":[],"categories_nodes":[],"categories_segments":[],"categories_sizes":[],"default_left":[0,0,1,0,0],"id":105,"left_children":[1,-1,3,-1,-1],"loss_changes":[2.654419E0,0E0,1.3198757E-1,0E0,0E0],"parents":[2147483647,0,0,2,2],"right_children":[2,-1,4,-1,-1],"split_conditions":[1E2,-6.831815E-2,6E0,1.0757006E-2,6.61137E-2],"split_indices":[5003,0,5046,0,0],"split_type":[0,0,0,0,0],"sum_hessian":[5.141057E0,2.1561542E0,2.9849029E0,1.0340943E0,1.9508085E0],"tree_param":{"num_deleted":"0","num_feature":"5050","num_nodes":"5","size_leaf_vector":"1"}},{"base_weights":[2.202654E-3,-6.6601075E-2,5.328339E-1,1.105996E-2,6.439409E-2],"categories":[],"categories_nodes":[],"categories_segments":[],"categories_sizes":[],"default_left":[1,0,1,0,0],"id":106,"left_children":[1,-1,3,-1,-1],"loss_changes":[2.4342682E0,0E0,1.0819006E-1,0E0,0E0],"parents":[2147483647,0,0,2,2],"right_children":[2,-1,4,-1,-1],"split_conditions":[3.0268613E-2,-6.6601075E-2,1.5E1,1.105996E-2,6.439409E-2],"split_indices":[3888,0,5047,0,0],"split_type":[0,0,0,0,0],"sum_hessian":[4.864474E0,2.0401828E0,2.824291E0,1.0040572E0,1.820234E0],"tree_param":{"num_deleted":"0","num_feature":"5050","num_nodes":"5","size_leaf_vector":"1"}},{"base_weights":[3.962573E-3,-6.553122E-2,5.170345E-1,1.1730829E-2,6.2348396E-2],"categories":[],"categories_nodes":[],"categories_segments":[],"categories_sizes":[],"default_left":[0,0,1,0,0],"id":107,"left_children":[1,-1,3,-1,-1],"loss_changes":[2.2401352E0,0E0,8.514607E-2,0E0,0E0],"parents":[2147483647,0,0,2,2],"right_children":[2,-1,4,-1,-1],"split_conditions":[1E2,-6.553122E-2,1E1,1.1730829E-2,6.2348396E-2],"split_indices":[5003,0,5044,0,0],"split_type":[0,0,0,0,0],"sum_hessian":[4.6209497E0,1.9010069E0,2.7199428E0,1.0140636E0,1.7058792E0],"tree_param":{"num_deleted":"0","num_feature":"5050","num_nodes":"5","size_leaf_vector":"1"}},{"base_weights":[5.7286443E-3,-5.8282267E-2,5.5822987E-2],"categories":[],"categories_nodes":[],"categories_segments":[],"categories_sizes":[],"default_left":[1,0,0],"id":108,"left_children":[1,-1,-1],"loss_changes":[2.0808823E0,0E0,0E0],"parents":[2147483647,0,0],"right_children":[2,-1,-1],"split_conditions":[2E0,-5.8282267E-2,5.5822987E-2],"split_indices":[5044,0,0],"split_type":[0,0,0],"sum_hessian":[4.3987284E0,2.1033049E0,2.2954235E0],"tree_param":{"num_deleted":"0","num_feature":"5050","num_nodes":"3","size_leaf_vector":"1"}},{"base_weights":[3.706152E-3,-6.0885604E-2,5.150978E-2],"categories":[],"categories_nodes":[],"categories_segments":[],"categories_sizes":[],"default_left":[1,0,0],"id":109,"left_children":[1,-1,-1],"loss_changes":[1.9401233E0,0E0,0E0],"parents":[2147483647,0,0],"right_children":[2,-1,-1],"split_conditions":[3.857565E-2,-6.0885604E-2,5.150978E-2],"split_indices":[3888,0,0],"split_type":[0,0,0],"sum_hessian":[4.192196E0,1.8207059E0,2.3714898E0],"tree_param":{"num_deleted":"0","num_feature":"5050","num_nodes":"3","size_leaf_vector":"1"}},{"base_weights":[1.707683E-3,-5.216181E-2,5.775712E-2],"categories":[],"categories_nodes":[],"categories_segments":[],"categories_sizes":[],"default_left":[1,0,0],"id":110,"left_children":[1,-1,-1],"loss_changes":[1.809841E0,0E0,0E0],"parents":[2147483647,0,0],"right_children":[2,-1,-1],"split_conditions":[5E0,-5.216181E-2,5.775712E-2],"split_indices":[5049,0,0],"split_type":[0,0,0],"sum_hessian":[4.005802E0,2.147984E0,1.8578184E0],"tree_param":{"num_deleted":"0","num_feature":"5050","num_nodes":"3","size_leaf_vector":"1"}},{"base_weights":[3.8964024E-3,-6.068061E-2,4.743601E-1,1.3863568E-2,5.6207616E-2],"categories":[],"categories_nodes":[],"categories_segments":[],"categories_sizes":[],"default_left":[0,0,0,0,0],"id":111,"left_children":[1,-1,3,-1,-1],"loss_changes":[1.6773319E0,0E0,1.9048989E-2,0E0,0E0],"parents":[2147483647,0,0,2,2],"right_children":[2,-1,4,-1,-1],"split_conditions":[1E2,-6.068061E-2,5.23E2,1.3863568E-2,5.6207616E-2],"split_indices":[5003,0,5022,0,0],"split_type":[0,0,0,0,0],"sum_hessian":[3.8361387E0,1.5431684E0,2.2929702E0,1.0095446E0,1.2834256E0],"tree_param":{"num_deleted":"0","num_feature":"5050","num_nodes":"5","size_leaf_vector":"1"}},{"base_weights":[3.947262E-3,4.623261E-1,-5.939896E-2,1.4465739E-2,5.4257568E-2],"categories":[],"categories_nodes":[],"categories_segments":[],"categories_sizes":[],"default_left":[0,1,0,0,0],"id":112,"left_children":[1,3,-1,-1,-1],"loss_changes":[1.552959E0,3.1523108E-3,0E0,0E0,0E0],"parents":[2147483647,0,0,1,1],"right_children":[2,4,-1,-1,-1],"split_conditions":[4.7458345E-1,2.7E1,-5.939896E-2,1.4465739E-2,5.4257568E-2],"split_indices":[3888,5047,0,0,0],"split_type":[0,0,0,0,0],"sum_hessian":[3.664093E0,2.2024732E0,1.4616199E0,1.0093892E0,1.193084E0],"tree_param":{"num_deleted":"0","num_feature":"5050","num_nodes":"5","size_leaf_vector":"1"}},{"base_weights":[6.618956E-3,-5.2296706E-2,5.0426703E-2],"categories":[],"categories_nodes":[],"categories_segments":[],"categories_sizes":[],"default_left":[1,0,0],"id":113,"left_children":[1,-1,-1],"loss_changes":[1.4543214E0,0E0,0E0],"parents":[2147483647,0,0],"right_children":[2,-1,-1],"split_conditions":[2E0,-5.2296706E-2,5.0426703E-2],"split_indices":[5044,0,0],"split_type":[0,0,0],"sum_hessian":[3.517617E0,1.6794773E0,1.8381397E0],"tree_param":{"num_deleted":"0","num_feature":"5050","num_nodes":"3","size_leaf_vector":"1"}},{"base_weights":[5.436951E-3,-5.708599E-2,4.4454407E-2],"categories":[],"categories_nodes":[],"categories_segments":[],"categories_sizes":[],"default_left":[0,0,0],"id":114,"left_children":[1,-1,-1],"loss_changes":[1.3611346E0,0E0,0E0],"parents":[2147483647,0,0],"right_children":[2,-1,-1],"split_conditions":[1E2,-5.708599E-2,4.4454407E-2],"split_indices":[5003,0,0],"split_type":[0,0,0],"sum_hessian":[3.375956E0,1.3301637E0,2.0457923E0],"tree_param":{"num_deleted":"0","num_feature":"5050","num_nodes":"3","size_leaf_vector":"1"}},{"base_weights":[2.2699335E-3,-4.5643866E-2,5.323953E-2],"categories":[],"categories_nodes":[],"categories_segments":[],"categories_sizes":[],"default_left":[1,0,0],"id":115,"left_children":[1,-1,-1],"loss_changes":[1.2753438E0,0E0,0E0],"parents":[2147483647,0,0],"right_children":[2,-1,-1],"split_conditions":[3E0,-4.5643866E-2,5.323953E-2],"split_indices":[5047,0,0],"split_type":[0,0,0],"sum_hessian":[3.2452807E0,1.8143514E0,1.4309292E0],"tree_param":{"num_deleted":"0","num_feature":"5050","num_nodes":"3","size_leaf_vector":"1"}},{"base_weights":[3.565622E-3,4.252636E-2,-5.4949578E-2],"categories":[],"categories_nodes":[],"categories_segments":[],"categories_sizes":[],"default_left":[0,0,0],"id":116,"left_children":[1,-1,-1],"loss_changes":[1.194535E0,0E0,0E0],"parents":[2147483647,0,0],"right_children":[2,-1,-1],"split_conditions":[4.7458345E-1,4.252636E-2,-5.4949578E-2],"split_indices":[3888,0,0],"split_type":[0,0,0],"sum_hessian":[3.1198628E0,1.9012625E0,1.2186003E0],"tree_param":{"num_deleted":"0","num_feature":"5050","num_nodes":"3","size_leaf_vector":"1"}},{"base_weights":[9.681377E-4,-4.675561E-2,4.812224E-2],"categories":[],"categories_nodes":[],"categories_segments":[],"categories_sizes":[],"default_left":[1,0,0],"id":117,"left_children":[1,-1,-1],"loss_changes":[1.1267307E0,0E0,0E0],"parents":[2147483647,0,0],"right_children":[2,-1,-1],"split_conditions":[4E0,-4.675561E-2,4.812224E-2],"split_indices":[5049,0,0],"split_type":[0,0,0],"sum_hessian":[3.0075083E0,1.5357293E0,1.471779E0],"tree_param":{"num_deleted":"0","num_feature":"5050","num_nodes":"3","size_leaf_vector":"1"}},{"base_weights":[1.0461574E-3,-4.72183E-2,4.4933915E-2],"categories":[],"categories_nodes":[],"categories_segments":[],"categories_sizes":[],"default_left":[1,0,0],"id":118,"left_children":[1,-1,-1],"loss_changes":[1.0390267E0,0E0,0E0],"parents":[2147483647,0,0],"right_children":[2,-1,-1],"split_conditions":[2E0,-4.72183E-2,4.4933915E-2],"split_indices":[5044,0,0],"split_type":[0,0,0],"sum_hessian":[2.8975945E0,1.3836687E0,1.5139259E0],"tree_param":{"num_deleted":"0","num_feature":"5050","num_nodes":"3","size_leaf_vector":"1"}},{"base_weights":[-6.1039114E-4,-5.024562E-2,4.1030046E-2],"categories":[],"categories_nodes":[],"categories_segments":[],"categories_sizes":[],"default_left":[1,0,0],"id":119,"left_children":[1,-1,-1],"loss_changes":[9.884168E-1,0E0,0E0],"parents":[2147483647,0,0],"right_children":[2,-1,-1],"split_conditions":[3.857565E-2,-5.024562E-2,4.1030046E-2],"split_indices":[3888,0,0],"split_type":[0,0,0],"sum_hessian":[2.7934337E0,1.157271E0,1.6361625E0],"tree_param":{"num_deleted":"0","num_feature":"5050","num_nodes":"3","size_leaf_vector":"1"}},{"base_weights":[-3.2667292E-3,-4.1238282E-2,4.7593683E-2],"categories":[],"categories_nodes":[],"categories_segments":[],"categories_sizes":[],"default_left":[1,0,0],"id":120,"left_children":[1,-1,-1],"loss_changes":[9.210429E-1,0E0,0E0],"parents":[2147483647,0,0],"right_children":[2,-1,-1],"split_conditions":[3E0,-4.1238282E-2,4.7593683E-2],"split_indices":[5047,0,0],"split_type":[0,0,0],"sum_hessian":[2.6968894E0,1.5300571E0,1.1668322E0],"tree_param":{"num_deleted":"0","num_feature":"5050","num_nodes":"3","size_leaf_vector":"1"}},{"base_weights":[-2.93372E-4,-4.797353E-2,3.8870018E-2],"categories":[],"categories_nodes":[],"categories_segments":[],"categories_sizes":[],"default_left":[1,0,0],"id":121,"left_children":[1,-1,-1],"loss_changes":[8.598872E-1,0E0,0E0],"parents":[2147483647,0,0],"right_children":[2,-1,-1],"split_conditions":[3.857565E-2,-4.797353E-2,3.8870018E-2],"split_indices":[3888,0,0],"split_type":[0,0,0],"sum_hessian":[2.6108024E0,1.0649538E0,1.5458486E0],"tree_param":{"num_deleted":"0","num_feature":"5050","num_nodes":"3","size_leaf_vector":"1"}},{"base_weights":[-3.647207E-3,3.843222E-2,-4.713114E-2],"categories":[],"categories_nodes":[],"categories_segments":[],"categories_sizes":[],"default_left":[0,0,0],"id":122,"left_children":[1,-1,-1],"loss_changes":[8.2063514E-1,0E0,0E0],"parents":[2147483647,0,0],"right_children":[2,-1,-1],"split_conditions":[1.7912E4,3.843222E-2,-4.713114E-2],"split_indices":[5044,0,0],"split_type":[0,0,0],"sum_hessian":[2.5245917E0,1.4772714E0,1.0473201E0],"tree_param":{"num_deleted":"0","num_feature":"5050","num_nodes":"3","size_leaf_vector":"1"}},{"base_weights":[-5.215376E-3,-3.999598E-2,4.34787E-2],"categories":[],"categories_nodes":[],"categories_segments":[],"categories_sizes":[],"default_left":[1,0,0],"id":123,"left_children":[1,-1,-1],"loss_changes":[7.727197E-1,0E0,0E0],"parents":[2147483647,0,0],"right_children":[2,-1,-1],"split_conditions":[5E0,-3.999598E-2,4.34787E-2],"split_indices":[5049,0,0],"split_type":[0,0,0],"sum_hessian":[2.44768E0,1.3381634E0,1.1095166E0],"tree_param":{"num_deleted":"0","num_feature":"5050","num_nodes":"3","size_leaf_vector":"1"}},{"base_weights":[-4.2271614E-3,-3.767542E-2,4.3377962E-2],"categories":[],"categories_nodes":[],"categories_segments":[],"categories_sizes":[],"default_left":[1,0,0],"id":124,"left_children":[1,-1,-1],"loss_changes":[7.1347475E-1,0E0,0E0],"parents":[2147483647,0,0],"right_children":[2,-1,-1],"split_conditions":[3E0,-3.767542E-2,4.3377962E-2],"split_indices":[5047,0,0],"split_type":[0,0,0],"sum_hessian":[2.3710155E0,1.3568507E0,1.0141648E0],"tree_param":{"num_deleted":"0","num_feature":"5050","num_nodes":"3","size_leaf_vector":"1"}},{"base_weights":[-2.9735921E-3,-4.077129E-2,3.817625E-2],"categories":[],"categories_nodes":[],"categories_segments":[],"categories_sizes":[],"default_left":[1,0,0],"id":125,"left_children":[1,-1,-1],"loss_changes":[6.693425E-1,0E0,0E0],"parents":[2147483647,0,0],"right_children":[2,-1,-1],"split_conditions":[2E0,-4.077129E-2,3.817625E-2],"split_indices":[5044,0,0],"split_type":[0,0,0],"sum_hessian":[2.2988708E0,1.0912077E0,1.2076632E0],"tree_param":{"num_deleted":"0","num_feature":"5050","num_nodes":"3","size_leaf_vector":"1"}},{"base_weights":[-3.2073364E-3,-3.662183E-2,4.0084563E-2],"categories":[],"categories_nodes":[],"categories_segments":[],"categories_sizes":[],"default_left":[1,0,0],"id":126,"left_children":[1,-1,-1],"loss_changes":[6.2129796E-1,0E0,0E0],"parents":[2147483647,0,0],"right_children":[2,-1,-1],"split_conditions":[5E0,-3.662183E-2,4.0084563E-2],"split_indices":[5049,0,0],"split_type":[0,0,0],"sum_hessian":[2.2350352E0,1.2266347E0,1.0084006E0],"tree_param":{"num_deleted":"0","num_feature":"5050","num_nodes":"3","size_leaf_vector":"1"}},{"base_weights":[-1.3906704E-3,-3.607904E-2,3.893301E-2],"categories":[],"categories_nodes":[],"categories_segments":[],"categories_sizes":[],"default_left":[1,0,0],"id":127,"left_children":[1,-1,-1],"loss_changes":[5.8645654E-1,0E0,0E0],"parents":[2147483647,0,0],"right_children":[2,-1,-1],"split_conditions":[2E0,-3.607904E-2,3.893301E-2],"split_indices":[5047,0,0],"split_type":[0,0,0],"sum_hessian":[2.1760027E0,1.1733313E0,1.0026715E0],"tree_param":{"num_deleted":"0","num_feature":"5050","num_nodes":"3","size_leaf_vector":"1"}},{"base_weights":[-1.0072042E-4,-3.619164E-2,3.6629252E-2],"categories":[],"categories_nodes":[],"categories_segments":[],"categories_sizes":[],"default_left":[1,0,0],"id":128,"left_children":[1,-1,-1],"loss_changes":[5.461405E-1,0E0,0E0],"parents":[2147483647,0,0],"right_children":[2,-1,-1],"split_conditions":[3E0,-3.619164E-2,3.6629252E-2],"split_indices":[5044,0,0],"split_type":[0,0,0],"sum_hessian":[2.1197348E0,1.0726775E0,1.0470573E0],"tree_param":{"num_deleted":"0","num_feature":"5050","num_nodes":"3","size_leaf_vector":"1"}},{"base_weights":[-3.5006792E-4,-3.641675E-2,3.5214778E-2],"categories":[],"categories_nodes":[],"categories_segments":[],"categories_sizes":[],"default_left":[1,0,0],"id":129,"left_children":[1,-1,-1],"loss_changes":[5.2136296E-1,0E0,0E0],"parents":[2147483647,0,0],"right_children":[2,-1,-1],"split_conditions":[4.7264423E-2,-3.641675E-2,3.5214778E-2],"split_indices":[3888,0,0],"split_type":[0,0,0],"sum_hessian":[2.0654032E0,1.0000911E0,1.065312E0],"tree_param":{"num_deleted":"0","num_feature":"5050","num_nodes":"3","size_leaf_vector":"1"}},{"base_weights":[-1.292776E-3,-3.5029393E-2,3.500537E-2],"categories":[],"categories_nodes":[],"categories_segments":[],"categories_sizes":[],"default_left":[1,0,0],"id":130,"left_children":[1,-1,-1],"loss_changes":[4.9205723E-1,0E0,0E0],"parents":[2147483647,0,0],"right_children":[2,-1,-1],"split_conditions":[3E0,-3.5029393E-2,3.500537E-2],"split_indices":[5046,0,0],"split_type":[0,0,0],"sum_hessian":[2.0128415E0,1.0112938E0,1.0015476E0],"tree_param":{"num_deleted":"0","num_feature":"5050","num_nodes":"3","size_leaf_vector":"1"}},{"base_weights":[2.5341767E-4],"categories":[],"categories_nodes":[],"categories_segments":[],"categories_sizes":[],"default_left":[0],"id":131,"left_children":[-1],"loss_changes":[0E0],"parents":[2147483647],"right_children":[-1],"split_conditions":[2.5341767E-5],"split_indices":[0],"split_type":[0],"sum_hessian":[1.9692532E0],"tree_param":{"num_deleted":"0","num_feature":"5050","num_nodes":"1","size_leaf_vector":"1"}},{"base_weights":[2.3183886E-4],"categories":[],"categories_nodes":[],"categories_segments":[],"categories_sizes":[],"default_left":[0],"id":132,"left_children":[-1],"loss_changes":[0E0],"parents":[2147483647],"right_children":[-1],"split_conditions":[2.3183886E-5],"split_indices":[0],"split_type":[0],"sum_hessian":[1.9692395E0],"tree_param":{"num_deleted":"0","num_feature":"5050","num_nodes":"1","size_leaf_vector":"1"}},{"base_weights":[2.2124714E-4],"categories":[],"categories_nodes":[],"categories_segments":[],"categories_sizes":[],"default_left":[0],"id":133,"left_children":[-1],"loss_changes":[0E0],"parents":[2147483647],"right_children":[-1],"split_conditions":[2.2124716E-5],"split_indices":[0],"split_type":[0],"sum_hessian":[1.9692532E0],"tree_param":{"num_deleted":"0","num_feature":"5050","num_nodes":"1","size_leaf_vector":"1"}},{"base_weights":[2.1114145E-4],"categories":[],"categories_nodes":[],"categories_segments":[],"categories_sizes":[],"default_left":[0],"id":134,"left_children":[-1],"loss_changes":[0E0],"parents":[2147483647],"right_children":[-1],"split_conditions":[2.1114145E-5],"split_indices":[0],"split_type":[0],"sum_hessian":[1.9692662E0],"tree_param":{"num_deleted":"0","num_feature":"5050","num_nodes":"1","size_leaf_vector":"1"}},{"base_weights":[2.011369E-4],"categories":[],"categories_nodes":[],"categories_segments":[],"categories_sizes":[],"default_left":[0],"id":135,"left_children":[-1],"loss_changes":[0E0],"parents":[2147483647],"right_children":[-1],"split_conditions":[2.0113692E-5],"split_indices":[0],"split_type":[0],"sum_hessian":[1.9692777E0],"tree_param":{"num_deleted":"0","num_feature":"5050","num_nodes":"1","size_leaf_vector":"1"}},{"base_weights":[1.9100441E-4],"categories":[],"categories_nodes":[],"categories_segments":[],"categories_sizes":[],"default_left":[0],"id":136,"left_children":[-1],"loss_changes":[0E0],"parents":[2147483647],"right_children":[-1],"split_conditions":[1.9100442E-5],"split_indices":[0],"split_type":[0],"sum_hessian":[1.969287E0],"tree_param":{"num_deleted":"0","num_feature":"5050","num_nodes":"1","size_leaf_vector":"1"}},{"base_weights":[1.8207858E-4],"categories":[],"categories_nodes":[],"categories_segments":[],"categories_sizes":[],"default_left":[0],"id":137,"left_children":[-1],"loss_changes":[0E0],"parents":[2147483647],"right_children":[-1],"split_conditions":[1.8207858E-5],"split_indices":[0],"split_type":[0],"sum_hessian":[1.969298E0],"tree_param":{"num_deleted":"0","num_feature":"5050","num_nodes":"1","size_leaf_vector":"1"}},{"base_weights":[1.7447046E-4],"categories":[],"categories_nodes":[],"categories_segments":[],"categories_sizes":[],"default_left":[0],"id":138,"left_children":[-1],"loss_changes":[0E0],"parents":[2147483647],"right_children":[-1],"split_conditions":[1.7447046E-5],"split_indices":[0],"split_type":[0],"sum_hessian":[1.9693109E0],"tree_param":{"num_deleted":"0","num_feature":"5050","num_nodes":"1","size_leaf_vector":"1"}},{"base_weights":[1.6573668E-4],"categories":[],"categories_nodes":[],"categories_segments":[],"categories_sizes":[],"default_left":[0],"id":139,"left_children":[-1],"loss_changes":[0E0],"parents":[2147483647],"right_children":[-1],"split_conditions":[1.657367E-5],"split_indices":[0],"split_type":[0],"sum_hessian":[1.9693189E0],"tree_param":{"num_deleted":"0","num_feature":"5050","num_nodes":"1","size_leaf_vector":"1"}},{"base_weights":[1.5640366E-4],"categories":[],"categories_nodes":[],"categories_segments":[],"categories_sizes":[],"default_left":[0],"id":140,"left_children":[-1],"loss_changes":[0E0],"parents":[2147483647],"right_children":[-1],"split_conditions":[1.5640368E-5],"split_indices":[0],"split_type":[0],"sum_hessian":[1.9693233E0],"tree_param":{"num_deleted":"0","num_feature":"5050","num_nodes":"1","size_leaf_vector":"1"}},{"base_weights":[1.4922793E-4],"categories":[],"categories_nodes":[],"categories_segments":[],"categories_sizes":[],"default_left":[0],"id":141,"left_children":[-1],"loss_changes":[0E0],"parents":[2147483647],"right_children":[-1],"split_conditions":[1.4922793E-5],"split_indices":[0],"split_type":[0],"sum_hessian":[1.9693321E0],"tree_param":{"num_deleted":"0","num_feature":"5050","num_nodes":"1","size_leaf_vector":"1"}},{"base_weights":[1.4247763E-4],"categories":[],"categories_nodes":[],"categories_segments":[],"categories_sizes":[],"default_left":[0],"id":142,"left_children":[-1],"loss_changes":[0E0],"parents":[2147483647],"right_children":[-1],"split_conditions":[1.4247763E-5],"split_indices":[0],"split_type":[0],"sum_hessian":[1.9693419E0],"tree_param":{"num_deleted":"0","num_feature":"5050","num_nodes":"1","size_leaf_vector":"1"}},{"base_weights":[1.3556895E-4],"categories":[],"categories_nodes":[],"categories_segments":[],"categories_sizes":[],"default_left":[0],"id":143,"left_children":[-1],"loss_changes":[0E0],"parents":[2147483647],"right_children":[-1],"split_conditions":[1.3556894E-5],"split_indices":[0],"split_type":[0],"sum_hessian":[1.9693494E0],"tree_param":{"num_deleted":"0","num_feature":"5050","num_nodes":"1","size_leaf_vector":"1"}},{"base_weights":[1.2805572E-4],"categories":[],"categories_nodes":[],"categories_segments":[],"categories_sizes":[],"default_left":[0],"id":144,"left_children":[-1],"loss_changes":[0E0],"parents":[2147483647],"right_children":[-1],"split_conditions":[1.2805572E-5],"split_indices":[0],"split_type":[0],"sum_hessian":[1.9693533E0],"tree_param":{"num_deleted":"0","num_feature":"5050","num_nodes":"1","size_leaf_vector":"1"}},{"base_weights":[1.2178445E-4],"categories":[],"categories_nodes":[],"categories_segments":[],"categories_sizes":[],"default_left":[0],"id":145,"left_children":[-1],"loss_changes":[0E0],"parents":[2147483647],"right_children":[-1],"split_conditions":[1.2178445E-5],"split_indices":[0],"split_type":[0],"sum_hessian":[1.9693593E0],"tree_param":{"num_deleted":"0","num_feature":"5050","num_nodes":"1","size_leaf_vector":"1"}},{"base_weights":[1.1650984E-4],"categories":[],"categories_nodes":[],"categories_segments":[],"categories_sizes":[],"default_left":[0],"id":146,"left_children":[-1],"loss_changes":[0E0],"parents":[2147483647],"right_children":[-1],"split_conditions":[1.1650984E-5],"split_indices":[0],"split_type":[0],"sum_hessian":[1.969368E0],"tree_param":{"num_deleted":"0","num_feature":"5050","num_nodes":"1","size_leaf_vector":"1"}},{"base_weights":[1.1112008E-4],"categories":[],"categories_nodes":[],"categories_segments":[],"categories_sizes":[],